tree
version=v4
num_class=1
num_tree_per_iteration=1
label_index=0
max_feature_idx=59
objective=binary sigmoid:1
feature_names=feature_0 feature_1 feature_2 feature_3 feature_4 feature_5 feature_6 feature_7 feature_8 feature_9 feature_10 feature_11 feature_12 feature_13 feature_14 feature_15 feature_16 feature_17 feature_18 feature_19 feature_20 feature_21 feature_22 feature_23 feature_24 feature_25 feature_26 feature_27 feature_28 feature_29 feature_30 feature_31 feature_32 feature_33 feature_34 feature_35 feature_36 feature_37 feature_38 feature_39 feature_40 feature_41 feature_42 feature_43 feature_44 feature_45 feature_46 feature_47 feature_48 feature_49 feature_50 feature_51 feature_52 feature_53 feature_54 feature_55 feature_56 feature_57 feature_58 feature_59
feature_infos=[-1:1] none none [1:20] none none none none none none [0.0014152278890833259:21.02099609375] [-4.1497907638549805:6.8469085693359375] [0:11.10806941986084] none [0:0.99999988079071045] [0:2990000] [0:13.671730995178223] [-7.4907917976379395:8.6891384124755859] [2.8725078664137982e-05:0.011235999874770641] none [2.7489392757415771:97.908172607421875] [0:96.856033325195312] [0:98.338676452636719] [0:100] [0:100] none [0:0.99999994039535522] [-37.405811309814453:29.703556060791016] [0.91570901870727539:1.0627018213272095] [5.6324817705899477e-05:0.1233757808804512] [-1:1] [-1:1] [-0.97492790222167969:0.97492790222167969] [-0.90096884965896606:1] [0:1] [0:1] [0:1] [0:0.91666668653488159] [0:1] [0:0.99652779102325439] none [1.4826753828774735:1.4999998960860157] [2.9653507657549469:2.9999997921720314] [1.9845408238225755:1.9999999076320116] none none none none none none [0:1] [0:9.3339424133300781] [0:1470000] [0:1760000] none [0:133.27314758300781] [0:132.63349914550781] none none none
tree_sizes=3511 3632 3604 3608 3593 3618 3618 3623 3619 3605 3614 3602 3613 3628 3628 3613 3610 3643 3617 3631 3613 3621 3629 3604 3635 3620 3628 3627 3616 3580 3603 3630 3629 3616 3636 3620 3616 3622 3604 3589 3618 3613 3586 3606 3582 3573 3612 3587 3511 3616 3542 3530 3532 3639 3648 3626 3500 3535 3610 3581 3623 3648 3490 3626 3512 3615 3611 3604 3598 3521 3476 3463 3572 3537 3619 3551 3544 3477 3555 3613 3554 3570 3534 3475 3517 3488 3542 3555 3497 3614 3497 3459 3600 3462 3538 3491 3573 3547 3553 3433

Tree=0
num_leaves=31
num_cat=0
split_feature=31 22 0 10 18 11 0 55 55 30 10 18 55 0 24 24 41 41 24 30 18 10 55 56 24 10 22 41 23 31
split_gain=1177.46 609.432 639.197 515.151 344.895 371.51 299.977 500.524 343.76 284.36 271.21 238.395 218.169 197.469 272.045 167.865 155.064 125.946 119.522 113.853 105.154 103.822 129.003 101.927 101.285 93.7188 93.226 85.1621 84.8212 81.5317
threshold=-0.7865660786628722 37.92536926269532 1.0000000180025095e-35 0.19562426209449771 0.00035049047437496489 -0.98437088727951039 1.0000000180025095e-35 2.55324399471283 1.8961742520332339 1.0000000180025095e-35 0.19562426209449771 0.00017753169959178197 3.5988135337829594 1.0000000180025095e-35 60.222347259521491 26.203368186950687 1.4878156393970756 1.4956286772570706 48.379070281982429 -0.7865660786628722 0.00020404370297910648 0.083054024726152434 4.1991839408874521 1.1287273168563845 22.459532737731937 0.21589437127113345 28.709250450134281 1.4999876253642037 43.305063247680671 0.91597560048103344
decision_type=2 2 2 2 2 2 2 2 2 2 2 2 2 2 2 2 2 2 2 2 2 2 2 2 2 2 2 2 2 2
left_child=1 4 -3 12 5 6 8 17 24 16 26 19 -4 18 27 -13 -7 -8 -11 -2 -19 22 -17 -6 -1 -10 -9 -15 -5 -23
right_child=11 2 3 28 23 9 7 10 25 13 -12 15 -14 14 -16 21 -18 20 -20 -21 -22 29 -24 -25 -26 -27 -28 -29 -30 -31
leaf_value=-0.69039514545168079 -0.70583215065204197 -0.73611139877814413 -0.69268040723492341 -0.70870741854321506 -0.71010852170422212 -0.6991031924381953 -0.74221250750442525 -0.71126450509912431 -0.7432461683380307 -0.70270904250207955 -0.7241945496793849 -0.71492155264326396 -0.64917011934163793 -0.73554139446416489 -0.7183037260316556 -0.70215986174071854 -0.71542443125895383 -0.7426306772009299 -0.72063640253490435 -0.71127200696464266 -0.72672297835848665 -0.71227946271771403 -0.64342682614202706 -0.71675036182285412 -0.71084223461434204 -0.72356571139833792 -0.6841247406356229 -0.71630167680661838 -0.69456807767380657 -0.70997439329217427
leaf_weight=866.33486300706863 22010.644299089909 1346.1850520968437 512.51708328723907 3883.8288533687592 7375.6549763679504 1604.430094063282 5291.3746932148933 646.93693846464157 799.67674106359482 1555.429752767086 4483.7519508600235 52822.14719504118 657.97305136919022 5618.2643574476242 5464.862388074398 526.64330780506134 15653.622543811798 1447.7172908186913 2311.1827644705772 17084.344220757484 3678.3364310860634 227211.71320110559 113.67196291685104 26639.410773515701 2012.7662715315819 2483.787570297718 619.34665620326996 640.75671523809433 1459.1948482394218 46154.348500370979
leaf_count=3925 99721 6099 2322 17596 33416 7269 23973 2931 3623 7047 20314 239315 2981 25454 24759 2386 70920 6559 10471 77402 16665 1029401 515 120692 9119 11253 2806 2903 6611 209106
internal_value=-0.713198 -0.718094 -0.704747 -0.698264 -0.71927 -0.721711 -0.726687 -0.730265 -0.717301 -0.718329 -0.718424 -0.711899 -0.668222 -0.723223 -0.726455 -0.712341 -0.713907 -0.736801 -0.713425 -0.708209 -0.731216 -0.711843 -0.691733 -0.71531 -0.70469 -0.728359 -0.69799 -0.733572 -0.704846 -0.71189
internal_weight=462977 97053.3 7859.7 6513.51 89193.6 55178.6 22330 16167.5 6162.57 32848.5 5750.04 365924 1170.49 15590.5 11723.9 326829 17258.1 10417.4 3866.61 39095 5126.05 274006 640.315 34015.1 2879.1 3283.46 1266.28 6259.02 5343.02 273366
internal_count=2097554 439708 35609 29510 404099 249991 101168 73248 27920 148823 26051 1657846 5303 70634 53116 1480723 78189 47197 17518 177123 23224 1241408 2901 154108 13044 14876 5737 28357 24207 1238507
is_linear=0
shrinkage=1


Tree=1
num_leaves=31
num_cat=0
split_feature=34 27 10 0 11 29 0 39 26 16 18 0 27 24 10 23 24 11 10 39 11 30 41 23 0 41 56 39 18 0
split_gain=800.434 583.777 664.226 547.502 338.434 267.02 263.527 203.926 191.977 174.24 139.939 181.666 495.654 402.005 321.787 132.834 123.848 114.891 113.042 103.009 102.515 100.796 100.315 96.8083 90.2645 202.269 88.7315 87.9578 211.265 143.195
threshold=1.0000000180025095e-35 -0.27696691453456873 0.14587473124265674 1.0000000180025095e-35 -0.66648656129837025 0.00052510362002067279 1.0000000180025095e-35 0.43576389551162725 0.29295657575130468 0.28518363833427435 0.00037348519254010176 1.0000000180025095e-35 0.0094708637334406393 41.589639663696296 0.19562426209449771 70.329090118408217 23.495679855346683 -1.3313556313514707 0.19562426209449771 0.61631944775581371 -1.0174527168273924 1.0000000180025095e-35 1.4999326953882159 90.916450500488295 1.0000000180025095e-35 1.4963693680748198 0.81366947293281566 0.52256944775581371 0.00029176329553592956 1.0000000180025095e-35
decision_type=2 2 2 2 2 2 2 2 2 2 2 2 2 2 2 2 2 2 2 2 2 2 2 2 2 2 2 2 2 2
left_child=5 2 3 -2 7 -1 -4 24 -5 19 11 13 14 23 -13 -14 -7 -16 -15 26 22 -22 -17 -9 -3 -26 -8 28 29 -6
right_child=1 4 6 8 27 16 9 10 -10 -11 -12 12 15 18 17 20 -18 -19 -20 -21 21 -23 -24 -25 25 -27 -28 -29 -30 -31
leaf_value=0.0072702926452940624 -0.040796723107515726 0.0020961790094715569 -0.0073309501779410605 0.022494473052703478 0.0011253435767909568 -0.001519575639137218 0.0048288276588449031 0.0016474002782910419 0.062865388103571437 0.040801762963162291 -0.0037259501997480293 0.011828531050017126 -0.011781975279682992 -0.028310819349903857 -0.018873756799503899 -0.031177812574071557 0.0016279602198917221 -0.005354861217968832 -0.0096332168200881918 0.010351660675724655 -0.0071094690313925728 -0.024778033202457084 -0.016863651562301851 0.018839801451791122 -0.013054946247718023 -0.0017592768243822295 -0.00054989293686683862 9.4006993138105277e-05 -0.0011784333547121097 -0.013751989374636307
leaf_weight=19464.500252664089 202.87370380759239 5782.9878844618797 7602.0434178560972 471.17221358418465 2125.6084726005793 36090.695902973413 13024.374391362071 1927.5398609191179 785.24977613985538 300.98625494539738 9214.5126045197248 2301.2816301882267 3908.3910175263882 1016.0941260904074 2296.635744586587 4012.4818376600742 233146.5779234767 4978.2245686650276 3995.8839328885078 3822.3464452177286 1662.2531972974539 1569.2094595879316 1761.2426636219025 1423.48897151649 5575.7356055229902 13703.649238541722 18642.945325449109 31271.791426375508 24128.049732804298 6764.816051453352
leaf_count=88050 925 26199 34484 2123 9631 163566 58987 8726 3512 1361 41778 10415 17779 4629 10458 18323 1055722 22622 18137 17311 7536 7157 8013 6423 25289 62106 84469 141726 109359 30738
internal_value=-3.67716e-07 -0.00267624 0.0022395 0.0354193 -0.00437985 0.0016149 0.00112367 -0.00692018 0.0477258 0.00291946 -0.00913293 -0.0107478 -0.0130874 -0.00445605 -0.00446767 -0.0194795 0.00120604 -0.00962271 -0.0134198 0.00259818 -0.0228203 -0.0156894 -0.0268114 0.00895059 -0.00338265 -0.00502606 0.00166231 -0.00180636 -0.00360619 -0.010195
internal_weight=462974 174272 44852 1459.3 129420 288702 43392.7 65129.6 1256.42 35790.7 40067.2 30852.7 22489.7 8363.01 9576.14 12913.6 269237 7274.86 5011.98 35489.7 9005.19 3231.46 5773.72 3351.03 25062.4 19279.4 31667.3 64290.3 33018.5 8890.42
internal_count=2097554 790216 203172 6560 587044 1307338 196612 295590 5635 162128 181996 140218 102303 37915 43495 58808 1219288 33080 22766 160767 41029 14693 26336 15149 113594 87395 143456 291454 149728 40369
is_linear=0
shrinkage=0.05


Tree=2
num_leaves=31
num_cat=0
split_feature=31 22 10 18 39 11 18 27 56 56 41 41 10 22 41 39 30 39 56 31 28 27 55 26 10 11 30 41 28 10
split_gain=981.893 521.806 327.605 290.079 333.63 267.78 204.833 163.31 162.68 156.022 131.721 130.554 111.001 122.411 108.404 104.931 103.192 88.796 87.3663 86.3456 94.2996 88.3055 78.6733 74.2352 70.1243 127.303 66.221 100.138 83.2187 65.3855
threshold=-0.7865660786628722 37.92536926269532 0.19562426209449771 0.00035049047437496489 0.52256944775581371 -1.0389634370803831 0.00016316594701493162 -0.25820112228393549 1.6136572360992434 2.6998181343078618 1.4945654033231579 1.4878156393970756 0.083054024726152434 42.340053558349616 1.4999951276231738 0.44618055224418646 -0.7865660786628722 0.57465279102325451 1.1287273168563845 0.78656607866287243 0.99715128540992748 3.2243975400924687 0.65397804975509655 0.29295657575130468 0.47790490090847021 -0.62283551692962635 0.60355338454246532 1.4972089670341504 1.0016923546791079 1.1859503388404848
decision_type=2 2 2 2 2 2 2 2 2 2 2 2 2 2 2 2 2 2 2 2 2 2 2 2 2 2 2 2 2 2
left_child=1 3 7 4 8 17 16 23 10 12 -1 -7 13 -8 15 -10 -2 -6 -5 22 21 -21 -11 -3 -13 -26 29 28 -28 -14
right_child=6 2 -4 18 5 11 9 -9 14 19 -12 24 26 -15 -16 -17 -18 -19 -20 20 -22 -23 -24 -25 25 -27 27 -29 -30 -31
leaf_value=-0.013537207011365703 0.0076502246157665104 0.017347469632581616 0.0031759127723269111 0.0028671876576086158 -0.0069770187298941622 0.011957739364949073 0.015094931013972546 0.01162662128254487 -0.0087575525187519859 -0.0032798842945627269 -0.0013980877100474671 0.0044641403014408533 0.0032864756505736124 0.085856923679890784 0.0019593704765531591 -0.018053953427005134 0.0017214298962463796 -0.01751004304293988 -0.003279693354383786 -0.012762135503577854 0.0021449854114574092 0.072669380713202864 -0.00024583148773230426 0.055050986987996979 -0.012905521979122068 -0.0014613646761602271 -0.00096686644294715371 0.0016935301403034995 -0.0094128162184715231 0.00098124565283019024
leaf_weight=3865.4325208216906 17317.883996903896 170.31126713752747 6520.1022906154394 7386.5516811907291 4352.1620449274778 1759.4560438841581 415.60169407725334 638.8253288269043 4049.8913484066725 33699.461025491357 5297.1174172759056 3196.2687133848667 73968.884887829423 71.653615519404411 915.63609725236893 12117.130810767412 12737.274238020182 3703.67377358675 26588.193810299039 1409.3651344180107 32580.773983567953 30.911052227020264 58378.799186453223 559.24343945086002 3009.0649024546146 12628.016734704375 22939.012121856213 56658.409414738417 3341.3392294794321 52659.06022337079
leaf_count=17613 78154 760 29517 33416 19868 7939 1868 2873 18486 152743 24111 14524 334718 316 4172 55405 57636 16922 120692 6380 147549 140 264457 2459 13679 57272 103910 256549 15141 238285
internal_value=-6.9036e-07 -0.00448041 0.00784384 -0.00557438 -0.00782173 -0.00409083 0.00118291 0.0300858 -0.0118943 0.000829323 -0.00651925 -0.00106736 0.00166394 0.0255009 -0.0147773 -0.0157252 0.00513762 -0.0118196 -0.00194328 -0.00056096 0.00159152 -0.0109286 -0.00135626 0.0462493 -0.0022842 -0.00366358 0.00160851 0.000510284 -0.0020407 0.00232783
internal_weight=462966 96757.1 7888.48 88868.6 54893.9 28648.6 366208 1368.38 26245.2 336153 9162.55 20592.8 210054 487.255 17082.7 16167 30055.2 8055.84 33974.7 126099 34021.1 1440.28 92078.3 729.555 18833.4 15637.1 209567 82938.8 26280.4 126628
internal_count=2097554 439708 35609 404099 249991 130204 1657846 6092 119787 1522056 41724 93414 950787 2184 78063 73891 135790 36790 154108 571269 154069 6520 417200 3219 85475 70951 948603 375600 119051 573003
is_linear=0
shrinkage=0.05


Tree=3
num_leaves=31
num_cat=0
split_feature=31 22 0 10 18 0 55 55 11 39 18 10 26 24 41 56 10 11 41 10 11 18 31 55 56 10 27 22 31 55
split_gain=887.463 471.264 550.213 377.214 263.334 310.956 496.501 453.147 413.922 399.754 185.472 183.047 167.367 130.93 121.164 116.258 114.398 125.344 113.906 113.089 93.8909 92.8907 83.9747 81.9883 78.9132 77.4968 115.624 74.894 74.4159 73.7671
threshold=-0.7865660786628722 37.92536926269532 1.0000000180025095e-35 0.23446697741746905 0.00035049047437496489 1.0000000180025095e-35 2.6296304464340214 1.8175686001777651 -1.0283976197242735 0.52256944775581371 0.00017753169959178197 0.14587473124265674 0.23985233157873156 23.495679855346683 1.4956286772570706 3.4945524930953984 0.45909407734870916 -0.63356298208236683 1.4999186088830345 0.23446697741746905 -0.67760649323463429 0.00021683659724658358 -0.91597560048103321 1.3084601163864138 1.1287273168563845 0.083054024726152434 -0.28358796238899225 28.709250450134281 0.91597560048103344 4.0873205661773691
decision_type=2 2 2 2 2 2 2 2 2 2 2 2 2 2 2 2 2 2 2 2 2 2 2 2 2 2 2 2 2 2
left_child=1 4 -3 12 5 7 8 15 14 18 -2 27 -4 -12 23 22 -11 -18 -10 -9 -13 -16 -1 -7 -6 26 -15 -8 -27 -21
right_child=10 2 3 -5 24 6 11 19 9 16 13 20 -14 25 21 -17 17 -19 -20 29 -22 -23 -24 -25 -26 28 -28 -29 -30 -31
leaf_value=-0.0038625528153875782 0.0043708023922911961 -0.021841772220532622 0.0094572119053263869 0.0072619126093967619 0.0027211087023132638 -0.034175311797547181 0.0054874503559621491 -0.02567550258356795 -0.023230206654453835 0.0082587619300877463 -0.0018529606727590677 -0.0071773491432075322 0.048095538540239596 0.047175879423228366 -0.026027001950907111 0.014651134361474548 -0.018248996151147799 -0.0025879928806395378 -0.0099030770703173159 -0.0047401909217847232 0.0018468777781727411 -0.011300958219865707 0.011748570246433483 -0.021292554211518259 -0.0031193319535341561 0.00071522507242065042 0.0032570543073500591 0.033432772754108393 0.0028753880497786478 -0.018187268084918551
leaf_weight=2371.0061012804508 39253.668782249093 1334.3288810104132 395.38035997748375 5215.4628223776817 7393.7485518306494 2273.2160256505013 478.73680830001831 976.07090988755226 4356.1908738315105 1887.7332264184952 42562.325312972069 6602.4876065403223 962.64314398169518 226.44872921705246 1586.8346230834723 3345.8513485193253 1543.2860798984766 7422.0975597351789 2537.0460348427296 5142.1260820627213 5115.5223988592625 3293.5117200613022 1352.9995076656342 2704.1782950162888 26558.092503681779 235891.27973024547 443.0856958180666 480.28829690814018 47977.584500953555 1272.1991772055626
leaf_count=10778 177123 6099 1765 23530 33416 10554 2166 4516 20054 8565 193122 30136 4215 995 7335 15129 7056 33673 11635 23431 23247 15130 6140 12494 120692 1067750 1993 2149 216863 5803
internal_value=-9.00193e-07 -0.0042641 0.00743166 0.0133738 -0.00530688 -0.0074525 -0.00971037 -0.00116287 -0.0134722 -0.00890894 0.00112323 -0.00151898 0.0368462 0.000733503 -0.0216872 0.00788675 -0.00292832 -0.00528385 -0.0183252 -0.00981999 -0.0032378 -0.0160891 0.00180925 -0.0271762 -0.00184745 0.0011204 0.0181112 0.0194827 0.00108032 -0.00740725
internal_weight=462955 96601 7907.82 6573.49 88693.2 54741.4 40281.1 14460.3 27604.1 17746.4 366354 12677 1358.02 327101 9857.74 7069.86 10853.1 8965.38 6893.24 7390.4 11718 4880.35 3724.01 4977.39 33951.8 284538 669.534 959.025 283869 6414.33
internal_count=2097554 439708 35609 29510 404099 249991 184194 65797 126496 80983 1657846 57698 5980 1480723 45513 32047 49294 40729 31689 33750 53383 22465 16918 23048 154108 1287601 2988 4315 1284613 29234
is_linear=0
shrinkage=0.05


Tree=4
num_leaves=31
num_cat=0
split_feature=31 22 0 10 18 0 55 55 11 39 39 18 26 24 41 41 10 41 30 10 11 11 10 24 24 55 31 11 55 23
split_gain=802.319 425.592 497.009 336.785 239.13 282.582 452.905 409.643 334.323 275.538 194.533 168.418 153.41 129.085 125.627 112.935 105.759 99.2781 92.5318 88.8443 93.409 88.3305 145.224 90.401 84.5878 82.0092 75.9058 72.5183 70.0632 69.574
threshold=-0.7865660786628722 37.92536926269532 1.0000000180025095e-35 0.26796753704547888 0.00035049047437496489 1.0000000180025095e-35 1.7858626842498782 1.8337202072143557 -1.0283976197242735 0.52256944775581371 0.50520831346511852 0.00016316594701493162 0.23985233157873156 23.14798736572266 1.4949925790339771 1.4999375016224057 0.19562426209449771 1.4999876253642037 -0.7865660786628722 0.52815765142440807 -0.62283551692962635 -0.56664392352104176 0.19562426209449771 79.855175018310561 72.661399841308608 0.59207123517990123 -0.91597560048103321 -1.3455952405929563 4.0873205661773691 44.940362930297859
decision_type=2 2 2 2 2 2 2 2 2 2 2 2 2 2 2 2 2 2 2 2 2 2 2 2 2 2 2 2 2 2
left_child=1 4 -3 12 5 7 8 25 15 17 14 18 -4 -13 -8 -7 -9 -10 -2 -11 -21 22 23 -12 -16 -1 -27 -24 -18 -5
right_child=11 2 3 29 -6 6 10 16 9 19 21 13 -14 -15 24 -17 28 -19 -20 20 -22 -23 27 -25 -26 26 -28 -29 -30 -31
leaf_value=0.015561106949162479 0.0070196791382483806 -0.020916902757647779 0.0086069041528114756 0.0031775513411351724 -0.0017562912127170125 -0.027895599160171449 -0.017298514915845286 -0.027272199658702853 -0.021923164781437667 0.0055912094024860521 0.0013596232258759992 -0.0018312172318085624 0.043703060082337819 0.0011180373096851528 -0.012191518357107649 -0.01301049061884605 -0.004826890767524677 0.00094991900862429553 0.001413577808983296 -0.022589067052630387 -0.0046266525634302584 0.0048139302530896934 -0.017091993651264129 0.02721777628612114 0.00070206776506317754 -0.00089955062791542023 0.011820754037435426 -0.0041125318210565986 -0.01776446279617944 0.016745072526454598
leaf_weight=2152.3158690333366 17387.650046274066 1323.9321692436934 440.11414307355881 3842.9928917586803 33929.937503188848 4826.2079778313637 3461.6027205884457 746.10505326092243 4319.3682266622782 1775.9581684470177 1025.1695585250854 42462.074495702982 1064.4023068845272 293879.36305993795 2276.176908120513 1731.4402561485767 5250.59067286551 532.93136404454708 12763.62678463757 841.15465672314167 5186.2775684595108 5203.4240209311247 1457.6241921782494 504.25539946556091 2883.4500165432692 3116.7210852205753 1880.3399844318628 4112.0541465729475 1306.9426955282688 1252.9763206094503
leaf_count=9691 78154 6099 1961 17311 154108 22587 15925 3494 20049 8057 4667 192767 4614 1329289 10482 7996 23977 2435 57636 3873 23552 23613 6726 2262 13151 14143 8490 18819 6002 5624
internal_value=-1.17545e-06 -0.00405884 0.00704223 0.0126503 -0.00505263 -0.00710143 -0.00926013 -0.00110657 -0.0148028 -0.0100551 -0.00417054 0.00106662 0.0334364 0.000745703 -0.0099297 -0.0239654 -0.0094349 -0.019411 0.00464651 -0.00423742 -0.00713339 -0.000134703 -0.0037619 0.00988512 -0.00498596 0.00740146 0.00388696 -0.00750935 -0.0074054 0.00651348
internal_weight=462937 96444.5 7924.42 6600.49 88520 54590.1 40137.1 14453 19213.3 12655.7 20923.8 366493 1504.52 336341 8621.23 6557.65 7303.64 4852.3 30151.3 7803.39 6027.43 12302.5 7099.1 1529.42 5159.63 7149.38 4997.06 5569.68 6557.53 5095.97
internal_count=2097554 439708 35609 29510 404099 249991 184194 65797 88549 57966 95645 1657846 6575 1522056 39558 30583 33473 22484 135790 35482 27425 56087 32474 6929 23633 32324 22633 25545 29979 22935
is_linear=0
shrinkage=0.05


Tree=5
num_leaves=31
num_cat=0
split_feature=31 22 18 39 10 11 30 18 56 41 27 41 41 39 39 41 39 27 30 27 56 10 56 10 28 10 11 11 22 10
split_gain=725.331 386.247 214.267 271.532 202.36 188.786 162.996 166.756 132.401 132.759 115.318 113.794 105.612 150.494 102.445 99.9769 91.4511 81.5724 103.083 77.9465 71.2506 68.3131 64.7648 64.7571 62.4671 61.5617 100.203 60.4002 99.2979 129.828
threshold=-0.7865660786628722 39.808204650878913 0.00035049047437496489 0.52256944775581371 0.19562426209449771 -1.0389634370803831 0.37940952181816107 0.00011972210995736533 1.6136572360992434 1.4949324758710199 -0.3890527337789535 1.4878156393970756 1.497245462660193 0.22743055969476703 0.57465279102325451 1.4999951276231738 0.44618055224418646 0.18396021425724032 -0.6035533845424651 -0.13940629363059995 1.1287273168563845 0.11622606590390207 3.2911002635955815 0.35095952451229101 1.0092791914939883 0.48367156088352209 -0.60030117630958546 -0.14531133323907849 38.979652404785163 0.33066529035568243
decision_type=2 2 2 2 2 2 2 2 2 2 2 2 2 2 2 2 2 2 2 2 2 2 2 2 2 2 2 2 2 2
left_child=1 2 3 8 10 14 7 -2 9 -1 -3 -7 13 -8 19 16 -10 27 -19 23 21 -4 -14 -5 -15 -13 -27 28 -9 -30
right_child=6 4 20 5 -6 11 12 17 15 -11 -12 25 22 24 -16 -17 -18 18 -20 -21 -22 -23 -24 -25 -26 26 -28 -29 29 -31
leaf_value=-0.011742080952409577 0.0088428625409570135 0.046721467063334604 0.044968671954103999 0.015771117176743291 0.0039779430782165715 0.011255753075015404 0.00094827770015365313 0.0029853475864865292 -0.0072963590491756719 0.00011963382395087493 0.014298263946948931 0.0042456325642862957 0.0014676667136113628 -0.0043747457823114042 -0.015860792423187244 0.0031562343572269246 -0.016004898121758742 -0.001408454963350863 0.0025589845193603467 -0.0086970482441039373 -0.0028161854796310863 0.0020940827634638682 -0.0013276380160056193 -0.0075626685650701927 -0.051579069413605551 -0.011107170406761929 -0.001200524173922763 0.0013991156798303789 0.030707364147619317 0.0069846949532237834
leaf_weight=4504.1311623603106 8349.9530503749847 460.08252440392971 94.039153203368187 718.84220644831657 4854.7990999221802 1798.8862464278936 22936.457551538944 55888.883032247424 4020.123482093215 4952.7415360063314 678.90773269534111 3365.955157071352 75560.271586865187 28471.910736247897 3713.7802571803331 915.96016858518124 12053.448486834764 39973.123911738396 27729.610941916704 3217.0893057584763 26879.687987357378 7710.1708928793669 28551.30481557548 507.10012120008469 70.25834621489048 3197.95402520895 12646.929671868682 75122.011566951871 700.24614480137825 3269.9737401902676
leaf_count=20761 37504 1959 420 3270 21912 8080 103816 252244 18569 22631 2981 15249 341754 129087 17210 4192 56019 181001 125425 14878 122338 34835 129472 2331 319 14683 57390 339331 3133 14760
internal_value=-1.41095e-06 -0.00386336 -0.00467923 -0.00660271 0.0084279 -0.00327586 0.0010129 0.00191814 -0.0102717 -0.00552988 0.0273953 -0.000769393 -0.000214921 -0.00206748 -0.00973184 -0.0129112 -0.0138268 0.00163286 0.000216524 -0.00460885 -0.00159508 0.00261071 0.000701089 0.0061193 -0.00449094 -0.00189542 -0.00319997 0.00234325 0.00352812 0.0111688
internal_weight=462915 96290.6 90296.8 55612.9 5993.79 29166.5 366624 211034 26446.4 9456.87 1138.99 21009.7 155590 51478.6 8156.81 16989.5 16073.6 202684 67702.7 4443.03 34683.9 7804.21 104112 1225.94 28542.2 19210.8 15844.9 134981 59859.1 3970.22
internal_count=2097554 439708 412856 255263 26852 133091 1657846 953398 122172 43392 4940 95402 704448 233222 37689 78780 74588 915894 306426 20479 157593 35255 471226 5601 129406 87322 72073 609468 270137 17893
is_linear=0
shrinkage=0.05


Tree=6
num_leaves=31
num_cat=0
split_feature=31 22 0 10 18 0 55 55 11 30 10 30 18 26 41 56 10 41 31 0 24 10 11 24 16 11 22 24 31 41
split_gain=655.508 350.606 444.561 280.676 197.372 259.141 416.559 372.878 333.903 263.937 155.64 146.965 149.861 135.807 107.347 98.0217 96.5982 95.3751 118.382 87.1912 135.823 86.1469 104.174 80.4966 80.0736 82.8469 78.4549 69.3992 68.1479 68.0246
threshold=-0.7865660786628722 37.92536926269532 1.0000000180025095e-35 0.3087544739246369 0.00035049047437496489 1.0000000180025095e-35 2.6296304464340214 1.8337202072143557 -1.0283976197242735 1.0000000180025095e-35 0.14587473124265674 0.37940952181816107 0.00011972210995736533 0.24899518489837649 1.4943149537272686 3.4945524930953984 0.19562426209449771 1.497245462660193 0.12940952181816107 1.0000000180025095e-35 86.873180389404311 0.54386544227600109 -0.60030117630958546 38.124721527099616 0.28518363833427435 -1.317036986351013 8.3228607177734393 43.132329940795906 -0.91597560048103321 1.4999951276231738
decision_type=2 2 2 2 2 2 2 2 2 2 2 2 2 2 2 2 2 2 2 2 2 2 2 2 2 2 2 2 2 2
left_child=1 4 -3 13 5 7 8 15 14 21 -8 12 -2 -4 -7 28 -9 18 19 -13 -21 -10 -23 -11 25 -12 -14 -16 -1 -28
right_child=11 2 3 -5 -6 6 10 16 9 23 24 17 26 -15 27 -17 -18 -19 -20 20 -22 22 -24 -25 -26 -27 29 -29 -30 -31
leaf_value=-0.003246208442818756 0.0083756854447741905 -0.0201745665063277 0.0079138405996236304 0.0056655076743299462 -0.0015886904257815368 -0.027251559659238242 0.018272511595466456 -0.025859293107167926 0.0060704006959119592 -0.020081286632010472 -0.011363647717735402 -0.00063899874923630277 -0.0021601642649815202 0.03878983571927553 -0.020546566371725649 0.013590596677586955 -0.0067484536416875787 0.00066585838466113559 0.00045835190698073841 -0.0092039365494453705 0.00150207745132243 -0.020418989076943492 -0.0025919833073594911 -0.010077899387585226 0.027369768180946344 -0.00097554404766747756 0.002273121888570154 -0.01026201306929005 0.010702603675394266 -0.00013098241284157289
leaf_weight=2390.6512322872877 8374.2657740265131 1315.4324171245098 513.39592011272907 4959.730108320713 33889.717142850161 3039.5927200466394 965.48542031645775 735.79126381874084 2354.2364967763424 3601.0868275761604 2439.0723848044872 9873.5545853078365 13311.268291398883 1162.7045475691557 3632.2714846879244 3376.3376290500164 6524.7183775603771 104136.23488785326 25449.988684847951 12206.501384586096 3911.8906935155392 945.47235251963139 6150.1030298173428 4554.5991059690714 218.45470201969147 9006.5520954728127 153057.14767599106 2991.015872657299 1381.7010070681572 36426.531036287546
leaf_count=10912 37504 6099 2274 22257 154108 14417 4315 3494 10653 16860 11258 44801 60294 4979 17126 15180 29979 471226 115181 55502 17738 4383 27936 21151 994 41131 690989 13970 6232 164611
internal_value=-1.54517e-06 -0.00367632 0.00637951 0.0116434 -0.00458289 -0.00645138 -0.00852703 -0.000704072 -0.012004 -0.00790495 -0.00102 0.00096185 0.00182097 0.0293324 -0.0194723 0.00740187 -0.00868518 -0.000204245 -0.00196563 -0.00433908 -0.00660562 -0.00221755 -0.0049674 -0.0144948 -0.00261692 -0.00318926 0.00155029 -0.0159022 0.00186283 0.00181095
internal_weight=462896 96148.1 7951.26 6635.83 88196.9 54307.1 39897.9 14409.2 27268.4 17605.5 12629.6 366747 211169 1676.1 9662.88 7148.69 7260.51 155578 51441.9 25991.9 16118.4 9449.81 7095.58 8155.69 11664.1 11445.6 202795 6623.29 3772.35 189484
internal_count=2097554 439708 35609 29510 404099 249991 184194 65797 126496 80983 57698 1657846 953398 7253 45513 32324 33473 704448 233222 118041 73240 42972 32319 38011 53383 52389 915894 31096 17144 855600
is_linear=0
shrinkage=0.05


Tree=7
num_leaves=31
num_cat=0
split_feature=31 22 0 10 41 0 55 55 11 39 10 11 56 39 41 41 0 30 38 11 10 41 26 22 56 29 28 29 56 10
split_gain=592.54 317.298 308.007 203.731 172.713 212.027 515.101 429.241 273.48 275.423 258.223 143.298 134.57 131.333 133.203 124.406 111.712 152.712 136.032 120.558 109.648 106.07 99.2669 99.0345 97.0801 90.0013 98.6256 89.1552 83.9993 82.1033
threshold=-0.7865660786628722 39.808204650878913 1.0000000180025095e-35 0.33066529035568243 1.4999587030973538 1.0000000180025095e-35 1.7858626842498782 1.8175686001777651 -1.0283976197242735 0.52256944775581371 0.14587473124265674 -1.543417155742645 2.6998181343078618 0.50520831346511852 1.4949925790339771 1.4958937544616149 1.0000000180025095e-35 0.12940952181816109 1.0000000180025095e-35 -0.71965512633323658 0.23446697741746905 1.4957178811082152 0.24899518489837649 21.324902534484867 1.0506970882415774 0.0040252909529954204 0.99677175283432018 0.00023343981592915955 3.4945524930953984 1.4171045422554018
decision_type=2 2 2 2 2 2 2 2 2 2 2 2 2 2 2 2 2 2 2 2 2 2 2 2 2 2 2 2 2 2
left_child=1 4 -3 22 5 7 8 28 15 -10 24 -12 16 14 -13 -7 18 21 23 -20 -9 -18 -4 -2 -8 26 -25 -23 -1 -15
right_child=12 2 3 -5 -6 6 10 20 9 -11 11 13 -14 29 -16 -17 17 -19 19 -21 -22 27 -24 25 -26 -27 -28 -29 -30 -31
leaf_value=0.0021764015420628565 0.003713626829150188 -0.018679252156894966 0.0075260241187315091 0.0062188923752827972 -0.00063852408465138487 -0.027446562700673478 0.034400311553098722 -0.023391554426736544 -0.017291356520074592 -0.0032385315010221832 -0.014421313001297998 -0.016143218004389909 -0.00031758195670975324 -0.00048651855684302782 -0.0029082910504210635 -0.014579912078949035 0.0061694369118795228 0.000709219372945893 -0.031019600342266654 -0.0056098223690034159 -0.0064215009680067357 0.036469478703570757 0.03678366171377398 -0.012495171053066377 0.0085498307952491335 0.0098140450561429171 -0.001244488536102482 0.0024162375589304843 0.011901265687587516 0.011989021940941749
leaf_weight=4582.7366052269936 13552.138815522194 939.69948741793633 404.50356233119965 3650.2173365652561 24277.827626824379 3565.7649842053652 504.02896676957607 1067.0857959538698 5854.6433521062136 8620.6407647132874 2824.210935741663 2718.5699643939734 138312.11872678995 9727.5219325721264 6322.6094420403242 3970.6975441724062 28433.989339053631 86607.024649724364 614.42685306072235 1942.9253978431225 8815.2844072580338 192.77109062671661 1023.3739679157734 2095.2931905835867 1299.7605711072683 1693.4634960591793 27695.590917691588 65724.62038359046 4307.7299726903439 1525.6479550153017
leaf_count=20829 61170 4385 1785 16340 110694 17104 2227 5070 27400 39297 13078 12671 626059 44402 28933 18504 127992 391572 2779 8775 40483 861 4342 9476 5890 7653 125000 296509 19357 6917
internal_value=-1.73594e-06 -0.00349887 0.00761661 0.0124826 -0.00424222 -0.00557374 -0.00737005 -0.00108278 -0.0129437 -0.00892231 -0.00244734 -0.00386896 0.000913408 -0.00240047 -0.00688787 -0.0206676 0.00165836 0.00222527 -0.000497109 -0.0117147 -0.00825391 0.00361689 0.0284953 0.000139874 0.0157732 -0.00139841 -0.00203579 0.00251582 0.00688843 0.00120485
internal_weight=462867 96002.6 6017.79 5078.09 89984.8 65706.9 46934.1 18772.8 22011.7 14475.3 24922.3 23118.6 366864 20294.3 9041.18 7536.46 228552 180958 47593.8 2557.35 9882.37 94351.4 1427.88 45036.5 1803.79 31484.3 29790.9 65917.4 8890.47 11253.2
internal_count=2097554 439708 26852 22467 412856 302162 216423 85739 102305 66697 114118 106001 1657846 92923 41604 35608 1031787 816934 214853 11554 45553 425362 6127 203299 8117 142129 134476 297370 40186 51319
is_linear=0
shrinkage=0.05


Tree=8
num_leaves=31
num_cat=0
split_feature=31 27 0 0 10 42 39 11 18 55 24 16 39 18 26 10 55 12 0 31 42 39 10 27 10 11 11 30 55 28
split_gain=535.602 246.652 391.322 336.089 470.771 260.358 286.239 299.677 196.989 192.918 172.516 136.106 135.946 127.975 127.805 97.2717 95.9161 89.3987 84.342 87.1611 89.9838 82.3347 79.0611 87.5736 79.0091 89.6474 74.8855 73.2252 71.565 93.8501
threshold=-0.7865660786628722 -0.1115494705736637 1.0000000180025095e-35 1.0000000180025095e-35 0.14587473124265674 2.999967890126245 0.52256944775581371 -1.0389634370803831 0.00026312937552575027 1.8175686001777651 62.745073318481452 0.28518363833427435 0.57465279102325451 0.00017753169959178197 0.28537866473197943 0.23446697741746905 0.83664444088935863 1.6982352137565615 1.0000000180025095e-35 0.78656607866287243 2.9936593691796385 0.48090277612209326 0.083054024726152434 -0.28358796238899225 0.51742631196975719 -0.71965512633323658 -0.84652006626129139 -0.7865660786628722 1.6918250322341921 1.0121278762817385
decision_type=2 2 2 2 2 2 2 2 2 2 2 2 2 2 2 2 2 2 2 2 2 2 2 2 2 2 2 2 2 2
left_child=1 3 9 15 14 6 8 12 10 21 -4 17 -8 27 -5 -1 18 -6 -15 20 -20 -3 23 -18 -9 -26 -19 -2 29 -10
right_child=13 2 5 4 11 -7 7 24 28 -11 -12 -13 -14 16 -16 -17 22 26 19 -21 -22 -23 -24 -25 25 -27 -28 -29 -30 -31
leaf_value=-0.02836572777903474 0.0054485806687692593 0.01449942904781789 -0.023576842145114896 0.012210105028619868 -0.00070809976282681052 -0.00062968901871647228 -0.0085759273241202728 0.0058317121902380191 -0.01253076474094794 -0.0058717170741321364 -0.0072741454859055373 0.028956705875623531 -0.026116939386492535 0.0025184500032176776 0.038930472704038398 -0.008237746432707584 0.042853172952174119 0.03046825784810946 -0.0073071731974461811 0.0012075757764292772 -0.0018298363410225796 0.0036679441242778374 0.00092309256714167968 0.0051332839637537441 -0.017696296291982355 -0.0019192994864016034 0.00570302666905694 0.0011043217013862621 -0.0028884350978479641 0.06908726067713912
leaf_weight=669.47480939328671 22281.903535053134 2460.8808144330978 6363.1682589948177 810.01467902958393 24374.590084865689 10907.71291257441 2523.3073849231005 2978.0795214474201 6206.1406120210886 4649.2487192451954 2178.2478209733963 417.73996113240719 1964.5814160704613 12430.616016551852 999.96416360139847 5804.22726303339 232.66165113449097 359.65256075561047 10354.840108647943 14641.246272519231 27181.575812757015 6111.992741972208 262220.63429345191 454.41606295108795 991.27490338683128 9820.0373565256596 2017.9012815505266 17178.008294090629 3218.3301474004984 35.422096788883209
leaf_count=3191 99721 11109 30410 3608 110974 49841 11795 13469 28872 21477 10152 1866 9310 56338 4253 26804 1004 1627 47036 66226 123342 27543 1184739 2038 4610 44710 9113 77402 14811 163
internal_value=-1.92132e-06 -0.00332984 -0.00527283 -1.92248e-05 0.00228166 -0.00740308 -0.0094396 -0.00503197 -0.0139148 0.00232949 -0.0194193 0.00063684 -0.0162545 0.000867402 0.0269724 -0.0103193 0.000543304 0.00019462 -0.00118276 -0.00206452 -0.00334082 0.00677717 0.000967476 0.0179062 -0.00137948 -0.00336587 0.00944926 0.0035574 -0.00894475 -0.0120676
internal_weight=462838 95862 60408.4 35453.6 28979.9 47186.3 36278.6 18277.3 18001.3 13222.1 8541.42 27169.9 4487.89 366976 1809.98 6473.7 327516 26752.1 64608.3 52177.7 37536.4 8572.87 262908 687.078 13789.4 10811.3 2377.55 39459.9 9459.89 6241.56
internal_count=2097554 439708 278272 161436 131441 218143 168302 83894 84408 60129 40562 123580 21105 1657846 7861 29995 1480723 121714 292942 236604 170378 38652 1187781 3042 62789 49320 10740 177123 43846 29035
is_linear=0
shrinkage=0.05


Tree=9
num_leaves=31
num_cat=0
split_feature=31 22 0 10 18 0 27 27 11 39 39 29 41 24 39 56 41 16 41 22 39 24 23 27 22 28 56 17 10 10
split_gain=484.132 272.808 353.527 215.557 161.578 205.375 324.099 275.883 225.108 205.113 134.197 120.474 113.138 105.595 99.7598 93.1234 83.0017 82.1127 76.5586 75.7818 73.3131 71.9279 68.1104 72.9087 66.5131 65.5495 61.5082 58.272 57.7569 57.5411
threshold=-0.7865660786628722 37.92536926269532 1.0000000180025095e-35 0.19562426209449771 0.00035049047437496489 1.0000000180025095e-35 0.013648144435137512 0.045459054410457618 -1.0174527168273924 0.53645831346511852 0.50173610448837291 0.00052510362002067279 1.4953989032310779 25.882901191711429 0.68576389551162731 3.3390742540359502 1.4999876253642037 0.13012868911027911 1.4999326953882159 29.578371047973636 0.58506944775581371 22.459532737731937 43.305063247680671 -0.089335512369871126 24.194033622741703 0.9998968541622163 1.1287273168563845 -0.7801218032836913 0.29560862481594091 0.23446697741746905
decision_type=2 2 2 2 2 2 2 2 2 2 2 2 2 2 2 2 2 2 2 2 2 2 2 2 2 2 2 2 2 2
left_child=1 4 28 15 5 7 10 19 18 16 12 14 25 -13 -2 -4 -10 27 20 -1 24 -9 -5 -24 -8 -7 -6 -12 -3 -15
right_child=11 2 3 22 26 6 8 21 9 -11 17 13 -14 29 -16 -17 -18 -19 -20 -21 -22 -23 23 -25 -26 -27 -28 -29 -30 -31
leaf_value=-0.0040050694626915439 -0.000434717847596011 -0.039905939286569214 0.037187836620403113 0.0025480776202482236 0.0027687184160901206 -0.0085867208015556265 -0.022841283817045699 0.014727086125456866 -0.01711629059487401 -0.0025438568793013207 0.012565967034077696 -0.0013953922316517356 -0.0023367490175535024 0.0072117999782158326 0.0064824932047549896 0.006394195902241712 0.0020690663725106912 0.012145394636961139 -0.010884581264771971 -0.015174665669306826 -0.037133343687676831 0.0034449071460312293 0.02304975625058946 -0.00029442777760656539 -0.007638838219653713 -0.0226640131610754 -0.0023912691112413426 -0.0020322425670960126 -0.013088055085868987 0.00089286585091427097
leaf_weight=5552.5743385702372 7684.5131316930056 248.54351738095284 921.49007233977318 3932.7011531889439 7390.9818966388702 1848.6597029417753 3604.0731304585934 2014.5758346915245 5196.2718344479799 7535.6028813570738 736.26185032725334 56283.549311771989 3881.7188467681408 3649.1310438662767 16202.162238076329 334.68477442860603 632.35600835084915 1345.7234414815903 2119.7579759210348 2090.1905089765787 706.23653888702393 4728.5806086808443 982.45739716291428 507.12071947753429 898.9382568448782 1496.215889275074 26419.560419619083 9556.9247697740793 1044.4609135091305 283260.96768064797
leaf_count=25627 34630 1174 3857 17596 33416 8666 17507 8955 24749 34341 3367 255443 17917 16383 72438 1446 2907 6127 10005 9735 3441 21480 4352 2259 4294 7034 120692 43839 4925 1278952
internal_value=-2.07338e-06 -0.00316884 0.0056874 0.0103205 -0.00397332 -0.00567186 -0.00753231 -0.000555963 -0.0118535 -0.00799163 -0.00279243 0.000823752 -0.00814419 0.000584781 0.00425718 0.0289834 -0.0150348 0.000530479 -0.0188956 -0.0070598 -0.0221555 0.00681555 0.00599691 0.0151023 -0.0198064 -0.0148837 -0.0012633 -0.000988047 -0.018243 0.000973235
internal_weight=462807 95726.7 7971.46 6678.45 87755.2 53944.7 39558.7 14385.9 20693.2 13364.2 18865.5 367080 7226.59 343194 23886.7 1256.17 5828.63 11638.9 7329.01 7642.76 5209.25 6743.16 5422.28 1489.58 4503.01 3344.88 33810.5 10293.2 1293 286910
internal_count=2097554 439708 35609 29510 404099 249991 184194 65797 97244 61997 86950 1657846 33617 1550778 107068 5303 27656 53333 35247 35362 25242 30435 24207 6611 21801 15700 154108 47206 6099 1295335
is_linear=0
shrinkage=0.05


Tree=10
num_leaves=31
num_cat=0
split_feature=34 22 0 10 42 24 29 0 55 22 30 39 11 18 39 27 10 11 22 39 55 10 39 10 32 18 42 42 55 26
split_gain=346.864 377.839 238.415 228.684 224.012 165.175 158.287 147.458 465.45 399.927 270.375 222.41 182.436 146.309 153.644 144.019 120.359 209.628 116.98 113.543 111.236 100.215 99.7548 93.8129 86.969 85.317 82.806 74.1039 69.2933 68.5178
threshold=1.0000000180025095e-35 40.704040527343757 1.0000000180025095e-35 0.19562426209449771 2.9938632439776125 62.745073318481452 0.0007963147945702077 1.0000000180025095e-35 1.7858626842498782 22.2658224105835 0.12940952181816109 0.52951389551162731 -1.0389634370803831 0.00020036928617628294 0.5260416865348817 0.037324121221899993 0.17232390493154529 -1.3019846081733701 28.709250450134281 0.44965277612209326 2.8339216709136967 0.26796753704547888 0.44618055224418646 0.25291186571121221 1.0000000180025095e-35 0.00029393821023404604 2.9998653907764319 2.9886299074545373 3.6881921291351323 0.33276413381099706
decision_type=2 2 2 2 2 2 2 2 2 2 2 2 2 2 2 2 2 2 2 2 2 2 2 2 2 2 2 2 2 2
left_child=6 4 -3 20 7 13 24 9 11 15 16 19 -13 14 22 -2 18 -18 -10 -9 -4 -11 -6 -7 26 28 -1 -21 -12 -20
right_child=1 2 3 -5 5 23 -8 8 10 21 25 12 -14 -15 -16 -17 17 -19 29 27 -22 -23 -24 -25 -26 -27 -28 -29 -30 -31
leaf_value=0.0040780741051093623 -0.0030296685473166856 -0.010311741183457837 0.0074843721357471795 0.0079817945641134595 -0.0093648587772653651 0.014185854660951791 0.00048771593905891391 -0.012325202835606345 0.0033253168817539928 -0.020244147307643019 -0.014641647788593511 -0.019704744241493238 -0.0026490800280043014 -0.001646822333201795 -0.00088436014026339871 0.0074824858987937908 -0.015688647796386256 0.0045911291285318512 0.017874961212572416 -0.030180447579215414 0.040910161094575619 -0.0065009663777133124 -0.027737248339724675 0.0012568763230015529 0.0011634287516604934 -0.0024307803112057543 0.011142288186482918 -0.017165759143564711 -0.003666454673729583 0.047817901946969922
leaf_weight=26817.261399567127 4845.3491827994585 1441.8023747503757 345.65771226584911 6172.1525630950928 1577.9374982714653 1455.8340461105108 234433.87288400531 6534.8021198660135 829.83008043467999 1517.6899005025625 4114.1846241056919 1970.3076019436121 7676.4250237047672 46610.564292475581 2365.5396681129932 9946.8191109597683 1477.4443834722042 9266.5583887547255 463.39835730195045 1891.9239205867052 889.15583701431751 10527.959902629256 1389.3544814139605 38700.060226857662 23617.836413025856 5858.2087267190218 4907.4666538089514 2592.4691830277443 2211.0587119758129 325.07979288697243
leaf_count=120304 22181 6705 1505 27616 7265 6544 1058872 30271 3757 7141 19206 9491 34946 212674 10863 44862 6904 42119 2065 9287 3705 48228 6714 175489 106039 26723 22123 12393 10154 1408
internal_value=-2.18164e-06 -0.00177383 0.00829041 0.0119114 -0.00231636 -0.000682653 0.0010555 -0.00440469 -0.00614745 -0.00146879 -0.00149244 -0.0116764 -0.00613263 -0.00254441 -0.0103896 0.00403911 0.00371712 0.00180239 0.0164291 -0.0165297 0.0315534 -0.00823254 -0.0179672 0.00172561 0.00346064 -0.00677847 0.00517083 -0.0226565 -0.0108051 0.0302201
internal_weight=462774 172998 8848.77 7406.97 164149 92099.3 289776 72049.5 45211.7 26837.8 24545.8 20665.9 9646.73 51943.4 5332.83 14792.2 12362.3 10744 1618.31 11019.2 1234.81 12045.6 2967.29 40155.9 55342.6 12183.5 31724.7 4484.39 6325.24 788.478
internal_count=2097554 790216 39531 32826 750685 419549 1307338 331136 208724 122412 112336 96388 44437 237516 24842 67043 56253 49023 7230 51951 5210 55369 13979 182033 248466 56083 142427 21680 29360 3473
is_linear=0
shrinkage=0.05


Tree=11
num_leaves=31
num_cat=0
split_feature=34 22 0 10 41 56 0 55 22 30 39 11 29 24 26 39 10 11 22 10 18 39 11 28 39 17 10 55 41 10
split_gain=313.296 341.203 234.987 228.501 203.121 151.383 147.204 408.642 352.043 231.311 199.295 165.289 144.001 131.721 117.982 105.197 95.516 197.746 104.94 88.8684 82.0082 141.507 77.2765 75.7378 75.2362 75.1298 73.0349 70.3133 68.2891 65.9953
threshold=1.0000000180025095e-35 39.808204650878913 1.0000000180025095e-35 0.21589437127113345 1.4969316219888062 1.6940453052520754 1.0000000180025095e-35 1.7858626842498782 22.365858078002933 0.12940952181816109 0.52951389551162731 -1.1767562031745908 0.00052510362002067279 63.17413520812989 0.23985233157873156 0.44965277612209326 0.19562426209449771 -1.3313556313514707 28.709250450134281 0.26796753704547888 0.00022037838061805817 0.5260416865348817 -0.96407678723335255 1.0004279017448428 0.42187500000000006 0.23077561706304553 0.23446697741746905 0.83664444088935863 1.4943149537272686 0.281692385673523
decision_type=2 2 2 2 2 2 2 2 2 2 2 2 2 2 2 2 2 2 2 2 2 2 2 2 2 2 2 2 2 2
left_child=12 4 29 14 6 26 8 10 13 16 15 -12 -1 -2 -4 -8 18 -18 -9 -10 21 24 -23 -11 -7 -5 -6 -14 -17 -3
right_child=1 2 3 25 5 20 7 9 19 23 11 -13 27 -15 -16 28 17 -19 -20 -21 -22 22 -24 -25 -26 -27 -28 -29 -30 -31
leaf_value=0.0051259360799733727 0.0062551360077876652 -0.035444740159066221 0.0050886875843028428 0.003363818300123392 0.015058240502717722 -0.005472193550689437 -0.011751053278549847 0.0026985103735675748 -0.01930238989476947 -0.0036174865292894925 -0.021078461030472 -0.0030836536738226253 -0.00091501013998790924 -0.0051645697405307443 0.037249310650771784 -0.029032043607282051 -0.017313488011281165 0.0039745351427954104 0.026967378010441901 -0.0061444204853461741 -0.0015124969205394972 -0.012984335827859367 0.0048940538955871311 -0.011961107904285118 -0.019257806270983946 0.014434873454016839 0.0015798948552500696 0.0011037772886213224 -0.016457263287244586 -0.0060349535958825785
leaf_weight=19730.566094756126 11699.373003065586 218.8923070281744 389.99613001942635 4887.4368844777346 1037.3178818821907 1716.9989284873009 6503.7052950561047 962.31104588508606 1467.2137162089348 7834.0542440712452 1515.4616482406855 8079.8063880205154 53876.381676614285 3220.1612626314163 1060.9791367352009 1861.8324608653784 1239.049418374896 9122.3143075704575 829.29024627804756 10234.345634251833 50574.10905380547 798.64914877712727 2485.1105637550354 4166.3057680279016 2336.614512860775 2232.333230599761 32332.601770922542 216271.36947654188 2570.0027493387461 1483.7944044023752
leaf_count=88050 52749 1039 1701 21851 4637 7825 30265 4363 6958 36100 7363 36947 244019 14787 4408 9263 5844 41424 3643 46981 230652 3758 11307 19299 11291 9950 146530 975269 12373 6908
internal_value=-2.32412e-06 -0.00168709 0.00715009 0.0105206 -0.00224549 -0.000683517 -0.00424506 -0.00599856 -0.00130177 -0.00159017 -0.0111848 -0.00592573 0.00100234 0.00379036 0.0286051 -0.0157993 0.00327206 0.00142884 0.013932 -0.00779425 -0.00222917 -0.00716898 0.000545818 -0.00651424 -0.0134186 0.00683504 0.00199887 0.000701164 -0.02174 -0.00981579
internal_weight=462738 172860 10273.4 8570.75 162587 91281.4 71305.2 44684.1 26621.1 24153.3 20530.8 9595.27 289878 14919.5 1450.98 10935.5 12153 10361.4 1791.6 11701.6 57911.5 7337.37 3283.76 12000.4 4053.61 7119.77 33369.9 270148 4431.84 1702.69
internal_count=2097554 790216 45857 37910 744359 416000 328359 206884 121475 110673 96211 44310 1307338 67536 6109 51901 55274 47268 8006 53939 264833 34181 15065 55399 19116 31801 151167 1219288 21636 7947
is_linear=0
shrinkage=0.05


Tree=12
num_leaves=31
num_cat=0
split_feature=31 22 0 10 18 0 39 56 55 11 39 30 18 26 41 39 56 56 41 55 41 39 0 24 28 28 10 39 10 41
split_gain=380.405 199.872 276.722 164.867 128.615 178.591 266.799 241.825 224.708 134.973 176 100.351 112.214 86.8761 85.0268 82.3423 76.6721 75.8445 74.693 73.5801 72.7439 105.399 71.2635 108.097 76.5512 71.3732 70.3144 62.7535 62.5146 62.2699
threshold=-0.7865660786628722 37.92536926269532 1.0000000180025095e-35 0.34081910550594335 0.00029977627855259931 1.0000000180025095e-35 0.51909720897674572 2.0568181276321416 2.4387716054916386 -1.050260007381439 0.57465279102325451 0.37940952181816107 0.00011972210995736533 0.24899518489837649 1.4946892643298173 0.48090277612209326 1.5016719102859499 3.4945524930953984 1.4999227979109564 1.1021500229835512 1.497245462660193 0.22743055969476703 1.0000000180025095e-35 86.873180389404311 0.99189934134483349 0.99677175283432018 0.3087544739246369 0.58506944775581371 0.11622606590390207 1.4878156393970756
decision_type=2 2 2 2 2 2 2 2 2 2 2 2 2 2 2 2 2 2 2 2 2 2 2 2 2 2 2 2 2 2
left_child=1 4 -3 13 5 8 7 14 15 10 16 12 -2 -4 -7 -1 26 27 -9 -11 21 -13 25 24 -24 -23 -8 -17 -10 -21
right_child=11 2 3 -5 -6 6 9 18 28 19 -12 20 -14 -15 -16 17 -18 -19 -20 29 -22 22 23 -25 -26 -27 -28 -29 -30 -31
leaf_value=0.013579152924361008 0.0070859157918100896 -0.016620331883530029 0.005112826767165444 0.0039999301695500186 -0.0015268201313726345 -0.011903580651889999 0.026163099557906473 -0.021773138363492407 -0.033227677360368087 -0.0062819125442139939 -0.021217584124728406 0.00074277446275252692 0.0012021743112871381 0.028760925528596812 -0.00053425062739871859 -0.0066301367163006317 -0.0072897689339296336 0.0084900510952499609 -0.011083532405847222 0.018179760976141057 0.00052315685159300129 -0.01613548883508947 0.053281058208846946 0.0010975493289080444 -0.0082575867802460248 0.00043077313209533783 -0.004708149624736758 0.007754464678838534 -0.0079650343398338565 0.00071489416892471307
leaf_weight=1927.7887824624777 8440.1528467088938 1273.5967753529549 557.9511396586895 4888.6103544831276 42287.711331993341 2907.8110372126102 396.34784942865372 5305.7096108943224 260.29792128503323 4138.7302888184786 2128.4906253963709 22968.168515130877 203256.87713120878 1277.8243750631809 3785.0555392354727 2761.7227092534304 1812.9088778048754 2528.6597544699907 2361.5181360840797 542.06989216804504 104235.44983997941 694.60190711915493 50.729885503649712 4307.0525650978088 13185.479780107737 10163.874683573842 345.00334304571152 1045.1236898601055 4135.9904254674911 8728.1853699684143
leaf_count=8692 37504 6099 2441 21749 193765 13801 1778 26191 1295 18992 10266 103816 915894 5320 17551 12690 8666 11233 11303 2424 471226 3163 232 19526 60384 46101 1609 4728 19367 39748
internal_value=-2.4355e-06 -0.00281555 0.00475003 0.00879756 -0.00350788 -0.00536495 -0.00732988 -0.0124185 -0.000328007 -0.00329081 -0.0105988 0.000728197 0.00143675 0.0215735 -0.00547382 0.00453088 -0.00175015 0.00177764 -0.0184807 -0.000738662 -0.000235775 -0.00177574 -0.00381243 -0.00578285 -0.00802173 -0.000628948 0.0117965 -0.00268102 -0.0094608 0.00173614
internal_weight=462699 95397.1 7997.98 6724.39 87399.1 45111.4 32451.8 14360.1 12659.6 18091.7 4682.75 367302 211697 1835.78 6692.87 8263.29 2554.26 6335.51 7667.23 13409 155605 51369.9 28401.7 17543.3 13236.2 10858.5 741.351 3806.85 4396.29 9270.26
internal_count=2097554 439708 35609 29510 404099 210334 152329 68846 58005 83483 22319 1657846 953398 7761 31352 37343 12053 28651 37494 61164 704448 233222 129406 80142 60616 49264 3387 17418 20662 42172
is_linear=0
shrinkage=0.05


Tree=13
num_leaves=31
num_cat=0
split_feature=31 22 0 56 0 41 39 11 39 55 0 10 41 56 0 35 41 38 11 22 10 28 10 22 22 29 28 10 11 41
split_gain=343.798 181.895 146.925 114.628 256.115 218.225 276.141 178.158 190.208 154.737 146.702 188.476 125.973 98.6555 99.3738 115.093 124.191 112.237 108.665 94.6552 121.488 93.1201 91.5159 87.7592 84.9413 82.365 84.6115 81.2463 105.186 76.096
threshold=-0.7865660786628722 42.340053558349616 1.0000000180025095e-35 1.4365701079368594 1.0000000180025095e-35 1.4999597729071332 0.52256944775581371 -0.99568232893943776 0.57465279102325451 1.5658743381500246 1.0000000180025095e-35 0.19562426209449771 1.4949925790339771 2.6998181343078618 1.0000000180025095e-35 1.0000000180025095e-35 1.4999539485279803 1.0000000180025095e-35 -0.71965512633323658 37.92536926269532 0.21589437127113345 0.99809265136718761 0.34081910550594335 33.572040557861335 21.324902534484867 0.0040252909529954204 0.99677175283432018 0.52815765142440807 -0.68765684962272633 1.4864007274295605
decision_type=2 2 2 2 2 2 2 2 2 2 2 2 2 2 2 2 2 2 2 2 2 2 2 2 2 2 2 2 2 2
left_child=1 3 -3 10 9 6 12 8 23 -5 -1 -12 -6 14 17 -16 19 24 -19 -17 -21 -18 -4 -8 -2 26 -26 -9 -29 -28
right_child=13 2 22 4 5 -7 7 27 -10 -11 11 -13 -14 -15 15 16 21 18 -20 20 -22 -23 -24 -25 25 -27 29 28 -30 -31
leaf_value=-0.0076485379712909586 0.0031752483552670713 -0.016221584988328371 0.023290669241302658 0.006559579008417294 -0.019608066850065917 -0.0013091625841807134 -0.007378176124443251 0.0067106403027886209 -0.024029801988856167 -0.0042397296520304403 0.019677597689530445 0.00024663634610315086 -0.010040870317044632 -0.00036266650669943511 0.0010208556485766099 0.004650456572452626 0.0058749642486380788 -0.029409575168764891 -0.0051440605860939605 0.049278957277608684 0.010731888381540633 -0.0013591739536374819 0.00594579492227389 0.017738945748697381 -0.011875713015688745 0.0091502346642386677 0.058851720199127516 -0.018990357937991822 -0.0012082364920827935 -0.0015464264098764904
leaf_weight=5585.6271748244762 13599.503310441971 555.70668046176434 1113.8007266521454 7570.0389165878296 4914.3116184473038 16959.597255200148 2305.5449313670397 2845.0712952613831 1959.563306376338 5903.8875892609358 1329.6272687613964 20322.488304555416 11474.41264270246 138346.42731663585 125418.30490276217 30449.944417059422 6293.6362710446119 605.67450486123562 1936.5006868094206 215.91648451983929 3833.7919611930847 15173.112107664347 2397.4318560659885 409.54695057868958 2085.4681099504232 1700.5640531033278 52.248492419719696 919.44343586266041 8707.2415456324816 27677.463806137443
leaf_count=26110 61170 2682 4650 33907 24286 77739 10977 12854 9543 27425 5854 92798 54397 626059 565661 136484 28338 2779 8775 928 17185 68338 10618 1822 9476 7653 232 4309 39737 124768
internal_value=-2.50611e-06 -0.002679 0.00766703 -0.00314034 -0.004297 -0.00593128 -0.00826881 -0.00383301 -0.0121578 0.00182763 -0.000423888 0.00143987 -0.0129097 0.000691579 0.00132837 0.00186221 0.00374764 -0.000703446 -0.0109253 0.00560557 0.0127871 0.000761736 0.0114478 -0.00358949 -0.000127458 -0.00155262 -0.00216308 -0.000712708 -0.0029066 -0.00143262
internal_weight=462662 95273.3 4066.94 91206.4 63968.7 50494.7 33535.1 17146.4 4674.66 13473.9 27237.7 21652.1 16388.7 367389 229042 181385 55966.4 47657.4 2542.18 34499.7 4049.71 21466.7 3511.23 2715.09 45115.2 31515.7 29815.2 12471.8 9626.68 27729.7
internal_count=2097554 439708 17950 421758 296996 235664 157925 79242 22342 61332 124762 98652 78683 1657846 1031787 816934 251273 214853 11554 154597 18113 96676 15268 12799 203299 142129 134476 56900 44046 125000
is_linear=0
shrinkage=0.05


Tree=14
num_leaves=31
num_cat=0
split_feature=31 22 0 10 18 0 55 55 11 39 16 27 0 35 22 10 38 11 18 31 28 10 11 26 39 56 41 28 56 56
split_gain=310.69 165.864 234.032 135.701 114.02 144.284 253.943 213.383 207.544 170.47 113.509 91.3783 105.939 149.652 99.3995 110.144 98.5592 116.042 83.4157 78.12 77.3737 80.8273 107.397 75.6222 73.7396 79.4407 73.5412 71.0909 66.4442 63.03
threshold=-0.7865660786628722 37.92536926269532 1.0000000180025095e-35 0.34081910550594335 0.00035049047437496489 1.0000000180025095e-35 2.6296304464340214 2.4387716054916386 -1.152918756008148 0.52256944775581371 0.28518363833427435 0.18396021425724032 1.0000000180025095e-35 1.0000000180025095e-35 37.92536926269532 0.50097617506980907 1.0000000180025095e-35 -0.78425213694572438 0.00012642407091334465 0.60355338454246532 0.99757704138755809 0.47790490090847021 -0.71965512633323658 0.24899518489837649 0.48090277612209326 3.4945524930953984 1.4943149537272686 0.99996668100357067 0.47184106707572943 1.2982392311096194
decision_type=2 2 2 2 2 2 2 2 2 2 2 2 2 2 2 2 2 2 2 2 2 2 2 2 2 2 2 2 2 2
left_child=1 4 -3 23 5 7 8 24 26 27 -8 12 16 28 18 -16 29 -18 -15 -13 -11 -22 -23 -4 -1 -26 -7 -10 -14 -2
right_child=11 2 3 -5 -6 6 10 -9 9 20 -12 19 13 14 15 -17 17 -19 -20 -21 21 22 -24 -25 25 -27 -28 -29 -30 -31
leaf_value=0.01183926208545976 -0.0021969434322255703 -0.015446372339756254 0.0042501781808472845 0.0036771298783165548 -0.00090512836573968739 -0.023365055567983573 -0.0011486270381221939 -0.0086307537300493922 -0.0062950804637967196 -0.018081829222835591 0.02741153117973132 -0.0013833302794709935 0.0034211700601189535 0.0099522937204547437 0.023846888672256986 0.0066712740815280573 -0.02721598300106284 -0.0040710274746767116 0.0025121799847846772 0.0011624506005026936 0.0070121096597144765 -0.017866865399701431 -0.0013127409306056565 0.02625369519696515 -0.0027853445412762863 0.0080955010320842222 -0.01268375120994044 -0.016177602705904459 0.00028137245689831774 0.0014372781518799747
leaf_weight=2335.6707527935505 22179.254984900355 1259.4960064589977 560.52362649142742 4898.2328897416592 33721.176027566195 2322.4725696593523 12195.080653056502 5029.2065115272999 3130.4540275484324 730.41952399909496 358.11206322908401 79693.28714106977 20055.393621966243 4064.0501374453306 1101.2263589799404 6125.3140558302402 712.88687981665134 2253.3017025589943 51591.094909057021 48457.226610839367 2314.1934979557991 1131.9725246578455 7286.0410539060831 1287.2197778075933 4184.466008245945 2799.9263501763344 5263.8288036137819 4346.4081012010574 105417.31724528968 25819.462803393602
leaf_count=10484 100022 6099 2441 21749 154108 11752 56108 23760 15215 3364 1590 361291 90352 17984 4843 27447 3287 10220 231740 218909 10564 5385 33327 5320 19162 12391 25655 21234 475531 116220
internal_value=-2.58284e-06 -0.00254891 0.00433871 0.00803265 -0.0031816 -0.0046184 -0.00619288 -0.000330442 -0.00896562 -0.0061665 -0.000333875 0.00065678 0.00123375 0.00178096 0.0037718 0.0092886 -0.000788621 -0.00963363 0.00305547 -0.000420701 -0.00233537 -0.00126368 -0.00353878 0.0195788 0.0041485 0.0015766 -0.0159537 -0.0120399 0.000783234 -0.000242024
internal_weight=462625 95154.9 8005.47 6745.98 87149.4 53428.3 39079 14349.3 26525.8 18939.5 12553.2 367470 239319 188354 62881.7 7226.54 50964.9 2966.19 55655.1 128151 11462.6 10732.2 8418.01 1847.74 9320.06 6984.39 7586.3 7476.86 125473 47998.7
internal_count=2097554 439708 35609 29510 404099 249991 184194 65797 126496 89089 57698 1657846 1077646 847897 282014 32290 229749 13507 249724 580200 52640 49276 38712 7761 42037 31553 37407 36449 565883 216242
is_linear=0
shrinkage=0.05


Tree=15
num_leaves=31
num_cat=0
split_feature=31 27 10 11 41 41 41 24 11 39 41 10 22 16 26 39 30 41 39 41 41 29 33 20 28 22 10 28 28 28
split_gain=280.767 151.463 152.986 116.153 107.401 94.4457 87.7518 85.4912 81.5473 76.0801 73.3782 71.5001 69.1945 61.411 53.3165 53.1657 52.154 60.591 86.7162 55.6476 85.4493 70.0355 53.9091 54.6265 52.0889 51.4429 69.3523 49.9119 47.93 46.3181
threshold=-0.7865660786628722 -0.1115494705736637 0.14587473124265674 -0.80474799871444691 1.4940919233191197 1.4999839450631225 1.4949925790339771 23.14798736572266 -1.3934474587440489 0.51562500000000011 1.4864007274295605 0.51742631196975719 50.571226119995124 0.15217339247465136 0.28275400400161749 0.44965277612209326 0.37940952181816107 1.497309030804794 0.23437500000000003 1.4999951276231738 1.4991799703252646 0.00023343981592915955 0.81174489855766307 25.323288917541507 0.99627175927162182 48.421466827392585 0.3087544739246369 0.99916872382164013 1.0016923546791079 0.99805206060409557
decision_type=2 2 2 2 2 2 2 2 2 2 2 2 2 2 2 2 2 2 2 2 2 2 2 2 2 2 2 2 2 2
left_child=1 2 4 5 -1 15 8 27 -4 -10 -9 -5 -11 -8 -6 -3 19 18 -18 20 24 -22 -23 -24 -12 -26 -27 -2 -20 -21
right_child=7 3 6 11 14 -7 13 10 9 12 16 -13 -14 -15 -16 -17 17 -19 28 29 21 22 23 -25 25 26 -28 -29 -30 -31
leaf_value=-0.0022670243275903306 -0.0057848088270974693 -0.0024645324185560607 -0.015871948844563694 0.0063244144721481864 0.010328280557182162 0.0011363917083401763 0.00030035318115182483 0.0097914316955698844 -0.008986618124018934 0.00077562086646408655 -0.0051448585203279227 -0.0026028996350106774 0.041372676549414199 0.014055908022439619 0.029674378754257703 -0.0086245789993652823 0.00094008822539476183 0.00086567316879067921 -0.0023962018893434441 0.0025823628168574965 0.031196068979981076 0.0028942802813896446 0.015009336732173296 0.0046011246952336301 0.0011709230254790196 0.043199046276799567 0.0070071337962693053 -0.00076937995181178395 -0.0082523920113778178 -0.0015404035444814383
leaf_weight=759.74301697313786 5642.8222789764404 4273.7096096724272 1478.5633781850338 2424.4480682611465 647.37638318538666 3640.9624307900667 24435.29766766727 2311.2562804669142 2815.0412583947182 3460.9369373470545 3243.8660815358162 29947.631957516074 108.24225902557373 839.25816231966019 791.62291394174099 19415.551411300898 21594.146276220679 89116.583279103041 20206.209773808718 9369.1395237147808 232.00553293526173 33868.522503763437 1927.4004093706608 3644.1280394047499 105002.54845835268 152.13207691907883 1018.7951105982065 41025.105141088367 4224.4131333529949 24966.8239005059
leaf_count=3435 25655 20111 7014 10973 2887 16798 111359 10222 13262 15900 14594 138152 480 3770 3329 92238 97505 402318 92031 42156 1017 152194 8653 16379 471725 651 4565 186331 19313 112537
internal_value=-2.6361e-06 -0.00242508 0.000169455 -0.00396071 0.0129414 -0.00636095 -0.000677996 0.000623749 -0.00529109 -0.00284061 0.000914562 -0.0019343 0.00200681 0.000757115 0.020971 -0.00751326 0.000850159 0.000104828 -0.00136838 0.00139929 0.00181723 0.00380517 0.00364404 0.00820172 0.00109646 0.00128715 0.0117093 -0.00137582 -0.00340882 -0.000415438
internal_weight=462584 95038.4 35336.1 59702.3 2198.74 27330.2 33137.3 367546 7862.78 6384.22 320878 32372.1 3569.18 25274.6 1439 23689.3 318567 135141 46024.8 183425 149089 39672.1 39440.1 5571.53 109417 106173 1170.93 46667.9 24430.6 34336
internal_count=2097554 439708 161436 278272 9651 129147 151785 1657846 36656 29642 1445860 149125 16380 115129 6216 112349 1435638 611167 208849 824471 669778 178243 177226 25032 491535 476941 5216 211986 111344 154693
is_linear=0
shrinkage=0.05


Tree=16
num_leaves=31
num_cat=0
split_feature=31 22 0 10 56 0 41 39 18 55 11 39 0 10 12 28 18 10 12 39 41 11 22 55 10 22 41 55 11 28
split_gain=253.63 142.524 119.334 98.4852 88.1081 271.022 163.99 177.928 166.096 140.227 127.409 160.161 111.567 177.106 86.6931 82.265 82.0986 78.5378 75.6102 73.9433 95.5925 73.6702 71.0348 69.8731 69.5384 74.9332 68.8053 67.6334 64.9483 62.9212
threshold=-0.7865660786628722 42.340053558349616 1.0000000180025095e-35 1.7749975919723513 1.5502572655677798 1.0000000180025095e-35 1.4999839450631225 0.5260416865348817 0.00022037838061805817 1.1608870029449465 -0.99568232893943776 0.57465279102325451 1.0000000180025095e-35 0.19562426209449771 1.9724117517471316 0.99965521693229686 0.00027276124455966061 0.52815765142440807 0.81946787238121044 0.48090277612209326 1.4999396568654209 -0.67760649323463429 33.572040557861335 0.62304919958114635 0.19562426209449771 36.712322235107429 1.4954973375441087 3.4590641260147099 -1.3313556313514707 1.0008309483528139
decision_type=2 2 2 2 2 2 2 2 2 2 2 2 2 2 2 2 2 2 2 2 2 2 2 2 2 2 2 2 2 2
left_child=1 3 -3 4 12 9 7 8 15 -6 11 22 27 18 26 -7 -2 -12 -14 -4 -21 -16 -9 -18 25 -25 28 -1 -15 -10
right_child=16 2 19 -5 5 6 -8 10 29 -11 17 -13 13 14 21 -17 23 -19 -20 20 -22 -23 -24 24 -26 -27 -28 -29 -30 -31
leaf_value=-0.0016154592769069727 0.0017506299038649109 -0.014857038888429517 -0.0051537704773543941 0.0037676560678582328 0.008490417281793743 -0.010374907424330686 -0.00075036736323039676 -0.0061804727348574208 -0.0049948079983755979 -0.0022747348411032826 0.0061564578163399927 -0.021373171557372325 0.0098129903221922041 -0.017386311647643492 0.043447573503944625 -0.023376082685269993 -0.0019151252189099348 -0.0034724960904889898 0.034077008790598252 0.020061937589381136 0.00076324909824092573 0.0073397437042841329 0.016882380351124583 0.0052785234883835248 0.00037269383561062356 0.032948297886008081 0.00067429455251955298 -0.012420082171897809 -0.003243315700705861 -0.012102947832749313
leaf_weight=2905.8016267865896 108033.68006628752 548.40923924744129 640.54056119918823 5501.1190139949322 5262.2676208168268 1909.3527625650167 11030.969915166497 2258.2671811878681 7145.7805190235376 7115.349430128932 2801.547271296382 2053.7769015729427 1020.1275987029076 1015.9694019109011 185.77695880830288 3354.0638476908207 36579.049834340811 8675.335851162672 468.52632382512093 1923.7544488012791 962.80747121572495 589.56005544960499 391.80249860882759 1071.6213725209236 221616.42914126813 317.08139815926552 14738.222790792584 2887.7649054676294 4038.4884941279888 5517.033305093646
leaf_count=13564 485516 2682 2830 25145 23450 9499 50628 10822 33947 32897 12617 10131 4495 4877 846 16792 166103 39823 2042 8234 4204 2669 1737 4805 1000054 1368 67093 13692 18721 26271
internal_value=-2.61276e-06 -0.00230646 0.0068409 -0.00271673 -0.0031346 -0.00425238 -0.00604971 -0.00776364 -0.0111947 0.002302 -0.00396248 -0.0108929 -0.000826182 0.000795728 -0.000409635 -0.0186598 0.000592388 -0.00112203 0.0174496 0.0102146 0.0136249 0.0159915 -0.00277072 0.000110351 0.000442586 0.0115963 -0.00105211 -0.00700095 -0.00608612 -0.00809174
internal_weight=462560 94942.4 4075.51 90866.9 85365.8 57515.5 45137.9 34107 17926.2 12377.6 16180.7 4703.85 27850.2 22056.7 20568 5263.42 367618 11476.9 1488.65 3527.1 2886.56 775.337 2650.07 259584 223005 1388.7 19792.7 5793.57 5054.46 12662.8
internal_count=2097554 439708 17950 421758 396613 268614 212267 161639 86509 56347 75130 22690 127999 100743 94206 26291 1657846 52440 6537 15268 12438 3515 12559 1172330 1006227 6173 90691 27256 23598 60218
is_linear=0
shrinkage=0.05


Tree=17
num_leaves=31
num_cat=0
split_feature=31 27 0 41 0 10 11 39 22 16 10 55 11 10 41 56 0 18 10 38 11 18 56 22 29 28 41 10 26 22
split_gain=229.222 131.554 303.809 189.41 153.902 257.611 153.396 126.397 108.737 102.531 101.035 88.6223 82.0622 104.254 101.032 77.3485 79.1064 127.314 113.903 95.3252 92.7177 76.4114 76.0135 75.2413 76.8368 95.6092 66.5147 65.8003 63.4077 63.1465
threshold=-0.7865660786628722 -1.0000000180025095e-35 1.0000000180025095e-35 1.4999839450631225 1.0000000180025095e-35 0.14587473124265674 -0.97429010272026051 0.5260416865348817 22.2658224105835 0.28518363833427435 0.19562426209449771 2.5907735824584965 -1.543417155742645 0.34081910550594335 1.4953989032310779 2.6998181343078618 1.0000000180025095e-35 0.0002259056054754183 0.083054024726152434 1.0000000180025095e-35 -0.71965512633323658 0.00028033737908117479 0.36175677180290228 21.324902534484867 0.0033261160133406524 0.99668189883232128 1.4864007274295605 1.7939801216125491 0.24446625262498858 29.578371047973636
decision_type=2 2 2 2 2 2 2 2 2 2 2 2 2 2 2 2 2 2 2 2 2 2 2 2 2 2 2 2 2 2
left_child=1 4 8 6 10 11 21 -8 -3 12 -1 -6 14 -14 -7 16 19 -18 -19 23 -21 29 -20 -2 25 -25 -27 -15 -13 -4
right_child=15 2 3 -5 5 9 7 -9 -10 -11 -12 28 13 27 -16 -17 17 18 22 20 -22 -23 -24 24 -26 26 -28 -29 -30 -31
leaf_value=-0.023073797586054375 0.0029470398133491496 0.0065190861965435318 -0.018830144341147621 -6.3124267915221693e-05 0.0030995831930274412 -0.021461775155456699 -0.010361524319092784 -0.0016753272675392621 -0.0053813056543995132 0.020272285495262707 -0.004489198178945073 0.0086080573467170844 0.010482853667383022 -0.0011247371589206269 -0.0023804353166538231 -0.00037105151950700302 0.004477978817700917 0.031267339861187966 0.004008306008212564 -0.027406712540754899 -0.0048256160002690673 -0.0085818118553896081 0.00051719648627288029 -0.014098131913383719 0.0062991750457017485 0.054200675519832403 -0.001686272178125961 0.0073635085895598015 0.029501059003647068 -0.00088597540194576281
leaf_weight=800.51223592460155 13619.521094784141 7736.8795538395643 4932.1583485156298 9569.6433111280203 828.25470489263535 959.79757703840733 7183.1604170799255 10044.522952094674 2552.9002114981413 612.3717867732048 8460.0478943586349 525.5772947371006 2387.984032779932 26323.217603191733 2502.3164413124323 138350.09920911491 31745.461988836527 310.03536283969879 17681.396080642939 594.44089218974113 1932.110946148634 5195.4548672288656 131951.76178623736 1615.4697697460651 2869.8267130553722 53.345186486840248 26965.056799083948 2499.9703995734453 1175.016951546073 544.39285160601139
leaf_count=3979 61170 34668 25043 43937 3799 4632 34780 45956 11780 2725 39697 2291 10929 120550 11540 626059 141764 1333 79501 2779 8775 24674 594336 7378 12926 232 121593 11264 4873 2591
internal_value=-2.65151e-06 -0.00219439 -0.00404327 -0.00613308 -0.000318654 0.00109611 -0.00821509 -0.00529708 0.00356659 -8.69041e-06 -0.00609571 0.0165117 -0.000366877 0.000443262 -0.00767033 0.000562643 0.0011259 0.00160146 0.000992452 -0.000687405 -0.0101384 -0.0129256 0.000929723 -0.00015822 -0.00150067 -0.00228241 -0.00157593 -0.000388512 0.023044 -0.0170464
internal_weight=462523 94834.2 47759.1 37469.3 47075.1 37814.5 27899.7 17227.7 10289.8 35285.7 9260.56 2528.85 34673.3 31211.2 3462.11 367689 229338 181689 149943 47649.8 2526.55 10672 149633 45123.2 31503.7 28633.9 27018.4 28823.2 1700.59 5476.55
internal_count=2097554 439708 223429 176981 216279 172603 133044 80736 46448 161640 43676 10963 158915 142743 16172 1657846 1031787 816934 675170 214853 11554 52308 673837 203299 142129 129203 121825 131814 7164 27634
is_linear=0
shrinkage=0.05


Tree=18
num_leaves=31
num_cat=0
split_feature=31 22 0 10 18 0 27 56 39 11 39 22 28 18 24 32 41 39 11 37 26 39 41 28 31 29 18 10 30 41
split_gain=207.132 121.212 185.388 102.655 91.4741 125.102 194.022 145.001 115.673 113.846 97.557 77.947 75.4349 72.6406 64.3671 61.3288 59.3507 59.1569 74.4656 64.3303 57.4945 59.014 55.5042 55.1948 54.2729 59.5848 53.6683 54.6069 52.8885 50.7947
threshold=-0.7865660786628722 37.92536926269532 1.0000000180025095e-35 0.36037126183509832 0.00029977627855259931 1.0000000180025095e-35 0.078879587352275862 3.4945524930953984 0.50520831346511852 -0.76287436485290516 0.54340279102325451 29.578371047973636 0.99919089674949657 0.00016316594701493162 19.583567619323734 0.87837970256805431 1.4953989032310779 0.57465279102325451 -0.98437088727951039 0.62500000000000011 0.25599123537540441 0.48090277612209326 1.4961777046687428 0.99638092517852794 -0.91597560048103321 0.00064825356821529578 0.0019929091213271026 0.11622606590390207 -0.7865660786628722 1.4878156393970756
decision_type=2 2 2 2 2 2 2 2 2 2 2 2 2 2 2 2 2 2 2 2 2 2 2 2 2 2 2 2 2 2
left_child=1 4 22 20 5 7 8 11 12 -8 -11 24 -7 15 -15 28 -14 -10 19 -19 -4 -22 -3 -23 -1 -26 27 -6 -2 -20
right_child=13 2 3 -5 26 6 9 -9 17 10 -12 -13 16 14 -16 -17 -18 18 29 -21 21 23 -24 -25 25 -27 -28 -29 -30 -31
leaf_value=-0.0043514845505139921 0.0038902713862361904 -0.020716616250719723 0.003970489475661222 0.0031671533252726467 0.012558022449281118 -0.00045238918819150744 -0.015455288502769041 0.0086656505508943237 0.0034418309861215437 -0.013551755459663088 -0.0012906507252048224 -0.012230889757726644 -0.017166718673330618 -0.0019253616211218712 0.0005352855667588055 0.0083756507685366598 -0.0059714245102525099 -0.022861385155522128 0.020229042144181857 -0.00095758660256264514 -0.019750040343105263 -0.0077577104264307658 0.0025883784051877524 0.028575142303193485 0.010837659242473185 -0.0040256343843302015 0.020967213458440728 -0.0013435637873580439 -0.00065908768931879338 -0.001701749433318376
leaf_weight=4421.3433171361685 15040.62509585917 881.7120927721262 600.67828989028931 4838.4167297929525 718.7653421908617 2405.5689904093742 6224.5772752761841 3496.3467604219913 6779.7116280347109 2668.9705979973078 4136.9990740120411 1930.5529526025057 2267.5148887783289 29085.20543295145 308180.6355817467 4340.5501327067614 2477.1243984848261 795.65643191337585 286.36714664101601 579.24532847106457 77.425777971744537 115.12128168344498 359.71948879957199 1136.1212377697229 1601.1555461883545 1164.8249545693398 277.2356246560812 41104.243986666203 11105.669045165181 3384.5688001215458
leaf_count=20615 66629 4340 2605 21434 3271 11481 31297 15446 31339 13188 18908 9237 11132 132437 1389619 19332 11701 3879 1271 2768 334 472 1759 4665 7304 5403 1264 189230 49829 15365
internal_value=-2.68527e-06 -0.00208756 0.00379771 0.00705574 -0.0026311 -0.00420847 -0.00587053 8.7164e-06 -0.00264456 -0.0105683 -0.00609886 -0.00331088 -0.00766495 0.000534361 0.000323084 0.00287165 -0.0113218 0.000390965 -0.00370825 -0.0136333 0.0168075 0.0226111 -0.0139637 0.0252323 -0.000914915 0.00457835 -0.000959307 -0.00110465 0.00195793 9.05628e-06
internal_weight=462483 94730 8009.19 6767.76 86720.8 44620.5 32006.3 12614.2 18975.8 13030.5 6805.97 9117.88 7150.21 367753 337266 30486.8 4744.64 11825.5 5045.84 1374.9 1929.35 1328.67 1241.43 1251.24 7187.32 2765.98 42100.2 41823 26146.3 3670.94
internal_count=2097554 439708 35609 29510 404099 210334 152329 58005 88936 63393 32096 42559 34314 1657846 1522056 135790 22833 54622 23283 6647 8076 5471 6099 5137 33322 12707 193765 192501 116458 16636
is_linear=0
shrinkage=0.05


Tree=19
num_leaves=31
num_cat=0
split_feature=31 27 0 0 10 41 11 39 55 55 16 10 55 30 18 18 41 30 17 31 29 17 41 39 0 56 28 26 28 28
split_gain=187.171 113.743 194.074 163.25 218.081 139.301 154.999 139.827 105.965 96.1446 87.5343 71.6868 69.7557 68.8085 81.5605 67.2522 65.3636 61.3421 59.7635 59.2094 60.5734 57.4111 57.3293 83.3986 67.189 92.024 63.9882 56.2114 52.8561 52.7715
threshold=-0.7865660786628722 -0.1115494705736637 1.0000000180025095e-35 1.0000000180025095e-35 0.14587473124265674 1.4999839450631225 -1.0174527168273924 0.49131944775581365 0.68478131294250499 1.3084601163864138 0.28518363833427435 0.19562426209449771 0.98342299461364757 0.37940952181816107 0.00011972210995736533 8.978207551990637e-05 1.4958531077678192 -0.37940952181816096 0.48040625452995306 -0.91597560048103321 0.00030102286837063735 -1.2245618700981138 1.497245462660193 0.22743055969476703 1.0000000180025095e-35 1.1287273168563845 0.99685746431350719 0.23744012415409091 1.0092791914939883 1.0121278762817385
decision_type=2 2 2 2 2 2 2 2 2 2 2 2 2 2 2 2 2 2 2 2 2 2 2 2 2 2 2 2 2 2
left_child=1 3 8 11 27 6 9 -8 -3 16 18 -1 -9 14 -2 -15 -4 -11 21 28 -21 -6 23 -17 26 -26 -25 -5 -10 -18
right_child=13 2 5 4 10 -7 7 12 19 17 -12 -13 -14 15 -16 22 29 -19 -20 20 -22 -23 -24 24 25 -27 -28 -29 -30 -31
leaf_value=-0.025322013966392432 0.0058922023789115827 0.0099794763606700504 -0.022231326009272401 0.0070683829794808877 0.019205519208117517 0.00010125276800113666 -0.010037112228121127 -0.005683804341904037 -0.0039088280761261978 -0.019003945020912898 0.023121479488491595 -0.0054783920708339484 0.0011593945712245416 -0.027575416100791408 0.00089304252403985928 0.00061719663339284065 -0.011853290861446798 -0.0051139595097085119 0.0069993278335864694 0.024971081130299319 0.0023951502359613494 -0.00079652487783217593 0.00042197953635678609 -0.014631055217059827 0.0004885525703762992 -0.0076112129646076724 0.00069643928698660395 0.025090887627585969 0.072124220398556843 0.054046617488512139
leaf_weight=493.87950645387173 8499.2838899940252 3174.9597022384405 2262.8232819288969 686.48250748217106 364.34984941780567 10849.51992700994 6555.0940977334976 5902.1776488572359 6026.6743300110102 912.53135411441326 428.92984287440777 5801.1737093031406 10090.345184937119 225.51907870173454 203659.10507670045 22964.05902095139 3358.3538019657135 6164.5485821068287 3002.1857984811068 323.19071063399315 3683.2013076543808 23325.699598789215 104207.26879841089 730.30044424533844 4858.8945110440254 12600.515468776226 10070.882542222738 1170.0703903436661 22.944615870714188 30.656060755252838
leaf_count=2516 37504 14010 11881 3022 1637 49841 31888 27445 27815 4532 1866 27479 46404 1018 915894 103705 16313 29697 13561 1462 16737 106516 470690 3362 22052 57901 45720 4839 105 142
internal_value=-2.68063e-06 -0.00198585 -0.00332215 0.000262869 0.00184829 -0.00485337 -0.0063772 -0.00388699 0.00201605 -0.0107883 0.000713421 -0.00703523 -0.00136615 0.000507539 0.00109331 -0.000290862 -0.0156509 -0.00690496 0.000353335 -0.000498222 0.00421632 -0.000488896 -0.000251274 -0.00162089 -0.00343951 -0.00535708 -0.000339899 0.0184269 -0.00362045 -0.0112572
internal_weight=462446 94629.8 59357 35272.8 28977.7 46126 35276.5 22547.6 13231 12728.9 27121.2 6295.05 15992.5 367816 212158 155657 5651.83 7077.08 26692.2 10056 4006.39 23690 155432 51224.7 28260.6 17459.4 10801.2 1856.55 6049.62 3389.01
internal_count=2097554 439708 278272 161436 131441 218143 168302 105737 60129 62565 123580 29995 73849 1657846 953398 704448 28336 34229 121714 46119 18199 108153 703430 232740 129035 79953 49082 7861 27920 16455
is_linear=0
shrinkage=0.05


Tree=20
num_leaves=31
num_cat=0
split_feature=31 27 22 41 39 10 56 41 31 11 29 11 39 20 41 41 27 18 32 28 10 28 41 21 16 10 41 41 28 28
split_gain=169.126 103.824 87.811 82.5297 106.222 96.6768 66.9608 70.8527 70.8048 65.417 63.4236 61.1504 60.9582 59.9008 59.4783 55.5252 52.3896 57.135 54.6829 47.0753 44.747 44.3683 45.8163 43.0576 42.2288 41.4887 66.4921 109.462 116.152 98.2591
threshold=-0.7865660786628722 -1.0000000180025095e-35 45.676216125488288 1.4949925790339771 0.52256944775581371 0.11622606590390207 2.3014953136444096 1.4864007274295605 0.91597560048103344 -0.75235870480537403 0.012585433200001718 -1.3019846081733701 0.44270832836627966 19.564119338989261 1.4867421410755637 1.4999839450631225 3.2243975400924687 0.00030989828519523149 0.87837970256805431 1.0037511587142947 0.62253487110137951 1.0001694560050967 1.4999396568654209 11.197967529296877 0.13481912761926654 1.3688046336174013 1.4999876253642037 1.4986050090053182 1.0018665194511416 0.99493390321731578
decision_type=2 2 2 2 2 2 2 2 2 2 2 2 2 2 2 2 2 2 2 2 2 2 2 2 2 2 2 2 2 2
left_child=1 2 3 4 12 -5 7 -2 16 15 23 -6 -1 -10 -13 -3 17 19 -18 21 -11 -8 -23 -4 -7 26 27 28 -9 -28
right_child=6 9 10 5 11 24 8 25 13 20 -12 14 -14 -15 -16 -17 18 -19 -20 -21 -22 22 -24 -25 -26 -27 29 -29 -30 -31
leaf_value=0.0010837586615726445 0.0125331181854146 -0.0065148776206403252 0.0050773515252997472 0.015646166900625095 -0.0090365087688823002 -0.00021648247549497135 -0.00092540876988719172 0.0016637557760575544 0.0077385284533486934 0.0044653527494738646 -0.0437700150117332 0.020508195128032376 -0.011136954017775407 0.0011149014291234681 0.001036603814421163 0.00052653294095084428 0.015028067328157622 -0.001589216154115962 -0.019604400102641716 -0.0096971991934631935 -0.0024929073886418695 0.00098878683864378871 0.005874239094466621 0.019355181524180629 0.0087829363058975415 -0.00017113685624515107 0.0079982377504032205 0.0045014075570870647 -0.0046373887949117251 -0.0016264253886428669
leaf_weight=1277.3284715414047 1346.4429711699486 19252.580893486738 1343.0531022548676 1047.3214017152786 1446.675568908453 28682.050398990512 24086.837566837668 75677.75525817275 4024.7585720717907 2575.866208255291 54.782325342297554 422.78595778346062 5073.4683363288641 22469.247653260827 5419.3220971375704 3276.1009260714054 889.95212949812412 85319.814131557941 130.72077785432339 1115.6496602743864 22426.05669157207 24480.951768293977 5969.1214482039213 870.14722201228142 1365.5902329981327 53105.099514856935 2947.4232493788004 31774.614202693105 8095.9036041498184 26439.441433042288
leaf_count=6110 5900 92674 5912 4565 6882 131460 108460 340377 18110 11745 243 1907 24353 101268 24917 15133 4047 386690 594 5071 103877 110344 27000 3756 6174 238756 13242 142519 36558 118910
internal_value=-2.68694e-06 -0.00188903 -0.000222729 -0.00070934 -0.00395198 0.000713019 0.00048205 0.00110216 -0.00025178 -0.00353682 0.00937537 0.000166745 -0.00867902 0.00212111 0.00244574 -0.00549092 -0.00069453 -0.000776251 0.0105926 0.000470089 -0.00177602 0.000678079 0.00194648 0.0106909 0.000192519 0.00102444 0.0014625 0.00200259 0.00105481 -0.000661098
internal_weight=462407 94533.1 47002.5 44734.5 13639.6 31095 367874 199387 168487 47530.6 2267.98 7288.78 6350.8 26494 5842.11 22528.7 141993 140972 1020.67 55652.6 25001.9 54536.9 30450.1 2213.2 30047.6 198040 144935 115548 83773.7 29386.9
internal_count=2097554 439708 216279 206368 64169 142199 1657846 896262 761584 223429 9911 33706 30463 119378 26824 107807 642206 637565 4641 250875 115622 245804 137344 9668 137634 890362 651606 519454 376935 132152
is_linear=0
shrinkage=0.05


Tree=21
num_leaves=31
num_cat=0
split_feature=31 27 0 0 10 41 55 55 11 10 11 16 39 10 11 24 26 18 41 39 55 10 51 12 31 29 28 0 39 28
split_gain=152.759 94.6588 178.609 144.065 190.954 122.534 136.241 95.7181 90.5567 97.2734 78.7682 72.9799 69.3073 65.8486 64.3107 63.3392 62.8904 62.0156 58.4508 57.1179 55.6285 53.9326 68.976 53.0677 52.5679 52.9885 49.9944 49.1899 56.554 55.1194
threshold=-0.7865660786628722 -0.1115494705736637 1.0000000180025095e-35 1.0000000180025095e-35 0.19562426209449771 1.4999839450631225 0.9249786138534547 0.68478131294250499 -1.3019846081733701 0.26796753704547888 -1.0065565705299375 0.28518363833427435 0.49479167163372045 0.14587473124265674 -0.60030117630958546 19.583567619323734 0.23985233157873156 0.00017556417878950017 1.4939551294396916 0.53645831346511852 2.4198939800262456 1.7939801216125491 2.6642986536026005 1.3259258866310122 -0.91597560048103321 0.00030102286837063735 0.99648258090019237 1.0000000180025095e-35 0.9010416865348817 0.99969163537025463
decision_type=2 2 2 2 2 2 2 2 2 2 2 2 2 2 2 2 2 2 2 2 2 2 2 2 2 2 2 2 2 2
left_child=1 3 7 13 16 6 10 -3 20 -10 -4 21 18 -1 -14 -2 -5 27 -11 -12 -8 22 -6 -22 -9 -26 -18 28 29 -17
right_child=15 2 5 4 11 -7 8 24 9 12 19 -13 14 -15 -16 17 26 -19 -20 -21 23 -23 -24 -25 25 -27 -28 -29 -30 -31
leaf_value=-0.027822021016726546 -0.0016631569690053567 0.0096624288329802618 -0.016286744801887326 0.0050006839746335255 -0.00064892377499044577 0.00015510368326970606 -0.012508410542293298 -0.0032398862933127278 0.011444572158912517 -0.018244695467587366 -0.012098737771878235 0.022471475552542933 -0.0057899649510739816 -0.0053785798014154501 0.0022009930259533402 -0.0036390043621016932 -0.0049839046368600594 0.00043025211237206857 -0.0050989369477469227 -0.0035424249900718706 -0.00463974020530733 0.0080408216621526123 0.040875871747204376 0.024667805254891539 0.023469174395312861 0.0024370144569411533 0.024384208182648991 0.003938848213011558 -0.0095995477378021041 0.0042139769032632553
leaf_weight=345.89617715775967 32126.334073230624 3180.6980178952217 3776.0106530636549 971.28510199487209 23998.551604792476 10845.37008062005 3948.0218987166882 6032.2514041215181 1251.225355938077 1031.0536103248596 3627.206728965044 372.44061034917831 3933.6572458297014 5925.8260221034288 6995.3739817589521 3588.809094786644 162.09974727034569 301153.58414247632 4700.8782259374857 4219.3499436527491 1475.9597002714872 2014.2321776002645 100.4237514436245 172.51161721348763 325.98267877101898 3682.1687018573284 1366.8290196210146 23765.473774850368 1374.6040037125349 5921.0687647014856
leaf_count=1790 146127 14010 19148 4302 109699 49841 19678 27920 5825 5239 17841 1616 18635 28205 32058 16038 675 1357551 22654 19419 7008 9013 440 797 1462 16737 5696 105580 6143 26407
internal_value=-2.6515e-06 -0.00179631 -0.00301786 0.000254675 0.00174138 -0.00449063 -0.00592482 0.00210372 -0.00373547 -0.00200087 -0.0103532 0.000494496 -0.00301061 -0.00661637 -0.000675171 0.000457819 0.01495 0.000660733 -0.00746358 -0.00749773 -0.00928726 0.000181049 -0.000475884 -0.00157272 -0.000290802 0.00414756 0.0212705 0.00266392 -0.000119806 0.00125044
internal_weight=462385 94455.3 59197.7 35257.6 28985.9 45976.6 35131.2 13221.1 23508.7 17912.2 11622.6 26485.6 16661 6271.72 10929 367930 2500.21 335804 5731.93 7846.56 5596.49 26113.2 24099 1648.47 10040.4 4008.15 1528.93 34650 10884.5 9509.88
internal_count=2097554 439708 278272 161436 131441 218143 168302 60129 111894 84411 56408 120768 78586 29995 50693 1657846 10673 1511719 27893 37260 27483 119152 110139 7805 46119 18199 6371 154168 48588 42445
is_linear=0
shrinkage=0.05


Tree=22
num_leaves=31
num_cat=0
split_feature=31 22 0 30 39 18 0 55 55 39 41 39 24 17 39 55 0 39 41 12 0 18 30 10 22 56 22 39 28 32
split_gain=138.034 87.932 137.038 82.3059 93.1669 76.7736 90.6975 153.776 146.162 84.4597 88.1967 83.708 63.1622 62.4683 62.3369 70.9126 73.9845 59.8962 60.6889 60.1405 59.5409 100.833 115.71 80.8962 76.7932 73.4819 71.9004 79.5127 86.2143 68.8639
threshold=-0.7865660786628722 38.257301330566413 1.0000000180025095e-35 0.12940952181816109 0.57118055224418651 0.0003199538186891005 1.0000000180025095e-35 1.6600775122642519 3.1963436603546147 0.52256944775581371 1.4999326953882159 0.50520831346511852 22.459532737731937 -0.7801218032836913 0.029513888992369178 0.83664444088935863 1.0000000180025095e-35 0.44270832836627966 1.4999956020128185 1.6982352137565615 1.0000000180025095e-35 0.00025748857297003275 0.37940952181816107 0.14587473124265674 29.434299468994144 0.54288250207901012 22.465379714965824 0.39756944775581365 1.0018306374549868 -0.60785761475563038
decision_type=2 2 2 2 2 2 2 2 2 2 2 2 2 2 2 2 2 2 2 2 2 2 2 2 2 2 2 2 2 2
left_child=1 5 -3 4 -4 6 8 9 12 10 -8 17 -1 -13 -2 16 -16 -9 19 -19 26 22 -22 24 -23 -25 -17 28 -28 -24
right_child=14 2 3 -5 -6 -7 7 11 -10 -11 -12 13 -14 -15 15 20 -18 18 -20 -21 21 23 29 25 -26 -27 27 -29 -30 -31
leaf_value=0.010671081248412928 0.0036252554380065312 -0.012389506501565993 0.015282366911752941 -0.0022918132580453604 0.00023011564300305404 -0.00049994821064867304 -0.016623606747370883 0.0013227481802052723 -0.010304684867808028 -0.0053684646421366502 -0.0037721272055650287 0.013142561690590663 0.00080787648384660678 -0.00035920678031523765 0.0020593730000429277 0.0011763933813602261 -0.0019577646341833537 -0.011417154937689975 0.013168393409380003 0.0074708023645962771 0.0040207375798714589 0.0011313676916655279 0.0043290894164766773 0.0029051030132429315 0.031845488917087474 -7.4923245102099276e-05 0.0013430373981569935 -0.0047927296123927675 -0.011970670410455854 -0.0044242112847893761
leaf_weight=2000.3814471811056 14699.036992162466 1159.3939638137817 2925.0796257555485 1954.5123476982117 1585.088673427701 38599.117530286312 4646.1922620683908 2070.0238525420427 2730.16004781425 8512.966086640954 1873.2720185518265 928.76349401473999 8607.4838023930788 11037.784920841455 14456.139238387346 25971.672035947442 55332.142825692892 4969.6078333556652 303.25444942712784 460.49318367242813 44036.466853231192 416.38672040402889 3217.5588708072901 24101.087508589029 398.06687225401402 145994.30480183661 14173.792656049132 16408.613809302449 1330.0719422996044 7448.3066906630993
leaf_count=8713 66042 5763 12585 8613 6902 177744 24402 9894 13218 40360 9215 4231 39563 50894 65314 116867 251071 24026 1394 2191 196218 1852 14550 108220 1708 658237 64141 73904 6035 33687
internal_value=-2.6405e-06 -0.00170868 0.00343953 0.00627835 0.00999229 -0.00216119 -0.00349318 -0.00483674 1.24889e-05 -0.00864825 -0.0129309 -0.00193858 0.00266783 0.00068871 0.000434847 0.000302105 -0.00112564 -0.00596755 -0.0085997 -0.00981538 0.000653574 0.0010206 0.002889 0.000422594 0.016143 0.000347321 -0.000776984 -0.00236672 0.000200858 -0.00178361
internal_weight=462347 94363.6 7624.07 6464.68 4510.17 86739.5 48140.4 34802.4 13338 15032.4 6519.46 19769.9 10607.9 11966.5 367984 353285 69788.3 7803.38 5733.36 5430.1 283496 225612 54702.3 170910 814.454 170095 57884.2 31912.5 15503.9 10665.9
internal_count=2097554 439708 33863 28100 19487 405845 228101 166607 61494 73977 33617 92630 48276 55125 1657846 1591804 316385 37505 27611 26217 1275419 1014472 244455 770017 3560 766457 260947 144080 70176 48237
is_linear=0
shrinkage=0.05


Tree=23
num_leaves=31
num_cat=0
split_feature=31 22 0 10 18 55 28 29 11 41 0 22 22 55 10 10 11 10 23 32 41 28 10 27 12 41 28 10 10 11
split_gain=126.586 181.891 124.683 111.184 81.6764 78.9352 78.0336 76.1724 68.8654 73.0112 107.858 184.667 156.959 103.536 109.887 94.3918 88.432 86.2874 79.7612 67.8845 95.8387 71.5792 66.3793 65.9441 61.655 58.9849 55.8826 54.7228 48.7535 48.4713
threshold=-0.12940952181816107 39.808204650878913 1.0000000180025095e-35 0.3087544739246369 0.00067449995549395691 2.5141468048095708 0.99858060479164135 0.0007963147945702077 -0.67760649323463429 1.4954485938666702 1.0000000180025095e-35 27.117994308471683 27.248165130615238 2.55324399471283 0.19562426209449771 0.19562426209449771 -1.4268380403518675 0.41109445691108709 90.916450500488295 1.0000000180025095e-35 1.4999326953882159 0.99980381131172191 0.67832833528518688 0.078879587352275862 2.391904473304749 1.4922907902478328 0.99734699726104747 0.50097617506980907 0.281692385673523 -1.5220060944557188
decision_type=2 2 2 2 2 2 2 2 2 2 2 2 2 2 2 2 2 2 2 2 2 2 2 2 2 2 2 2 2 2
left_child=1 4 28 5 8 -4 -6 19 9 10 11 18 16 -11 -15 25 -12 23 26 20 -2 -22 -10 -18 -16 -14 -1 -8 -3 -20
right_child=7 2 3 -5 6 -7 27 -9 22 13 12 -13 15 14 24 -17 17 -19 29 -21 21 -23 -24 -25 -26 -27 -28 -29 -30 -31
leaf_value=-0.0152087193637667 0.0029478601688341021 -0.029168452413215574 -0.0001101506728121607 0.0046764244068487242 0.0051450542881580691 0.023522605441980749 0.011824973575163499 0.00034904146414738488 0.0037427328312296389 -0.0033171707268037269 -0.017637731724676545 -0.012193957291726426 -0.002428215976033112 0.015730442233970448 0.00012754911690850736 -0.0034540424595916174 0.004150408253773003 -0.011797672270579146 0.029518057403477217 0.00036933382159383865 0.0029001204875549226 0.016302492765162432 -0.0011367297697757433 -0.0093303724249106899 0.04442165005644802 0.02185880539782234 0.0012899347519162998 -0.0013700352199897759 -0.0037788205597534814 0.0079722229089925611
leaf_weight=558.77891655266285 21391.695804879069 211.30570961534977 463.29616004228592 8471.4055717438459 8917.8129065483809 1488.6312725394964 828.5376160889864 207474.60281935334 7591.339607834816 32594.396208167076 3071.4448143690825 2823.7544646263123 385.83662305772305 1239.5458143502474 17476.345186337829 3594.9292883574963 2022.8985639363527 5496.5771291255951 309.57585528492928 19118.093037471175 1610.5089515149593 2611.9694508761168 85147.960360497236 1644.7484368383884 78.917536839842796 710.07562078535557 6297.5425643473864 15218.078210771084 1797.1349248886108 1664.7617330253124
leaf_count=2606 95269 1065 1989 37577 40339 6143 3772 935130 34410 151577 15486 13489 1730 5441 79792 16845 9456 26628 1359 85302 7199 11678 387773 7935 355 3197 29012 69173 8473 7354
internal_value=-2.63572e-06 -0.000909108 0.0049572 0.00715523 -0.00127804 0.0179133 0.00139522 0.000752518 -0.00166445 -0.00273963 -0.00476544 -0.00106378 -0.00731414 -0.00161294 0.00134257 0.000462065 -0.0102953 -0.0078345 0.00249529 0.0026239 0.00430668 0.0111907 -0.000737313 -0.00189502 0.000326668 0.0133081 -5.46784e-05 -0.000688735 -0.00645003 0.0113506
internal_weight=462313 210106 12431.8 10423.3 197674 1951.93 24964.4 252207 172709 79970.1 28580.9 11654.4 16926.5 51389.2 18794.8 4690.84 12235.7 9164.22 8830.66 44732.3 25614.2 4222.48 92739.3 3667.65 17555.3 1095.91 6856.32 16046.6 2008.44 1974.34
internal_count=2097554 962976 55247 45709 907729 8132 113284 1134578 794445 372262 135097 53820 81277 237165 85588 21772 59505 44019 40331 199448 114146 18877 422183 17391 80147 4927 31618 72945 9538 8713
is_linear=0
shrinkage=0.05


Tree=24
num_leaves=31
num_cat=0
split_feature=31 27 0 41 11 0 16 39 22 30 55 50 12 11 55 16 55 28 39 55 0 28 29 41 0 18 30 24 22 39
split_gain=117.375 78.4796 205.301 125.042 97.374 93.0435 129.127 87.9279 80.4613 73.948 72.4052 66.8996 65.7428 95.6549 62.1363 57.4954 55.6186 79.4885 55.3917 63.1254 65.8366 54.3936 54.3346 61.8888 52.7261 89.2564 102.072 66.842 64.0385 71.8147
threshold=-0.7865660786628722 0.0094708637334406393 1.0000000180025095e-35 1.4999812331503033 -1.0174527168273924 1.0000000180025095e-35 0.13481912761926654 0.5260416865348817 22.2658224105835 -0.37940952181816096 3.3532918691635136 1.0000000180025095e-35 1.9724117517471316 -0.84652006626129139 3.4590641260147099 0.35312244296073919 1.2494582533836367 1.0121278762817385 0.029513888992369178 0.83664444088935863 1.0000000180025095e-35 1.0053041577339175 0.00052510362002067279 1.4968296845898192 1.0000000180025095e-35 0.00025748857297003275 0.60355338454246532 99.932704925537124 22.465379714965824 0.39756944775581365
decision_type=2 2 2 2 2 2 2 2 2 2 2 2 2 2 2 2 2 2 2 2 2 2 2 2 2 2 2 2 2 2
left_child=1 5 8 4 9 14 11 -6 -3 -4 -8 12 -7 -14 -1 -12 17 -11 -2 20 21 -20 -22 -24 28 26 -26 -27 -21 -30
right_child=18 2 3 -5 7 6 10 -9 -10 16 15 -13 13 -15 -16 -17 -18 -19 19 24 22 -23 23 -25 25 27 -28 -29 29 -31
leaf_value=-0.0012185143326984688 0.0034057171580637565 0.0058247339927289914 -0.022601175702331111 8.0425614303506274e-05 -0.0085376720530549368 0.0011940310722311481 0.0040842287354975913 -0.0012605515542507772 -0.0047703378281970547 -0.013701767046882094 0.013086385511725786 -0.0024122227984780457 0.040278216359656886 0.0062666678182764744 -0.009414502139113809 0.036321952453328775 -0.0049437352914398726 0.074757852135819286 0.0024936116589159107 0.0011027791785326463 0.0047347261020992647 -0.01476347202294076 -0.0048999004767548478 -0.0011229896733641925 0.0036756167715551904 2.1416797544814993e-05 -0.0021105716957283446 0.0030470204875736821 0.00019787783405373488 -0.0045497900177438886
leaf_weight=5619.2712774723768 14719.834128946066 7563.584955021739 1141.2658250778913 9584.2428757995367 7180.3752602636814 19107.66903860867 1670.6101986169815 9838.6285399645567 2348.2572517991066 4078.3676655441523 913.97044642269611 15306.379587352276 252.85822650790215 1133.0893467664719 3929.7032532542944 375.66547635197639 4153.5039361566305 25.554469183087349 13996.425429657102 25984.11688414216 2958.1774958223104 472.01741656661034 15346.290832325816 36988.280395150185 45611.141895338893 150163.86627095938 9151.036572650075 20780.43317706883 15503.925699293613 16380.713248372078
leaf_count=26407 66042 33727 5967 44093 35499 87499 7613 45265 10879 20885 4036 70437 1093 5049 19111 1564 20467 117 63169 116867 13170 2145 69874 168027 202981 676765 41474 93252 70176 73904
internal_value=-2.62712e-06 -0.00157728 -0.00305745 -0.00481177 -0.00658665 -0.000170498 0.000918641 -0.00433079 0.00331461 -0.0106715 0.0109547 8.87745e-05 0.00195673 0.0124719 -0.00459142 0.0198548 -0.0090227 -0.0131509 0.000400486 0.00027529 -0.00107214 0.00193062 -0.00185787 -0.00223051 0.000606765 0.000951987 0.00270872 0.000389217 -0.000739711 -0.00224123
internal_weight=462279 94223 45913.8 36001.9 26417.7 48309.2 38760.2 17019 9911.84 9398.69 2960.25 35800 20493.6 1385.95 9548.97 1289.64 8257.43 4103.92 368056 353336 69761.2 14468.4 55292.7 52334.6 283575 225706 54762.2 170944 57868.8 31884.6
internal_count=2097554 439708 216899 172293 128200 222809 177291 80764 44606 47436 13213 164078 93641 6142 45518 5600 41469 21002 1657846 1591804 316385 65314 251071 237901 1275419 1014472 244455 770017 260947 144080
is_linear=0
shrinkage=0.05


Tree=25
num_leaves=31
num_cat=0
split_feature=31 22 56 0 16 0 22 41 39 11 10 27 11 28 41 29 10 10 0 56 55 20 10 29 22 50 10 11 29 39
split_gain=106.234 160.076 85.8403 189.395 122.95 89.3859 127.465 114.959 289.797 116.142 92.6272 112.795 95.6082 80.7268 84.6517 66.6899 66.4739 65.1868 68.9132 66.0533 65.1309 60.7874 60.7474 59.3171 55.7596 55.2791 53.6255 52.3154 50.6803 50.6005
threshold=-0.12940952181816107 43.010503768920906 1.1130312681198122 1.0000000180025095e-35 0.28518363833427435 1.0000000180025095e-35 23.64382362365723 1.4969316219888062 0.52256944775581371 -1.5658814311027525 0.281692385673523 -0.20070520043373105 -1.152918756008148 1.0004279017448428 1.4943149537272686 0.00052510362002067279 0.11622606590390207 0.17232390493154529 1.0000000180025095e-35 2.841717123985291 0.51280078291893016 36.748254776000984 0.21589437127113345 0.0033763493411242966 28.709250450134281 1.0000000180025095e-35 0.17232390493154529 -1.5220060944557188 0.0018763167900033297 0.44270832836627966
decision_type=2 2 2 2 2 2 2 2 2 2 2 2 2 2 2 2 2 2 2 2 2 2 2 2 2 2 2 2 2 2
left_child=1 2 3 22 16 6 20 8 13 24 11 -11 -12 -7 29 -2 -5 18 -3 -20 -4 28 -1 26 -10 -14 -8 -22 -18 -15
right_child=15 17 5 4 -6 7 23 -9 9 10 12 -13 25 14 -16 -17 21 -19 19 -21 27 -23 -24 -25 -26 -27 -28 -29 -30 -31
leaf_value=-0.026135219315488557 0.0038088724809100926 -0.029452920411194891 0.0078029167274159348 0.019051884346466007 0.02802886609142894 -0.006132754434615576 -0.019083765179747934 -0.0011210817041388324 -0.020671838657335472 0.035114168546091833 -0.015507798887303907 0.0046288327288991201 0.0023381773585820723 -0.012592977114296265 -0.0094731758848781589 0.0004770206740800937 -0.00082187814685756556 0.0045534004957052824 0.033159212466511309 0.0061968324962062135 0.0089759071907380122 0.0049793684514926658 -0.0047004892292953964 0.013898312742418538 0.0012936765051005247 -0.0027461953007239612 -0.0040258098106688098 0.00036071417205265147 0.0043167881147223456 -0.026850085739819764
leaf_weight=342.75355742871761 16038.047687903047 70.334298804402351 4890.3084577172995 568.3192318379879 462.44216084480286 9839.6353266686201 636.31978832185268 78710.955464720726 1063.2213163673878 351.97339640557766 1112.4374587088823 2199.7046592533588 9653.4576218128204 1124.8214272111654 5699.7601629942656 236270.55893753469 18896.369540214539 6299.9593577235937 542.53589522838593 390.75796829164028 1977.9582606106997 10688.667483270168 9280.7406403571367 430.91737650334835 396.72602105140686 11980.780794858932 8349.8988328874111 16149.610600501299 6431.2337391674519 1393.1575275212526
leaf_count=1747 70872 361 21753 2410 2000 47534 3158 360946 5389 1533 5493 10209 43720 5419 27378 1063706 85735 28075 2197 1628 9061 48182 43006 1969 1791 54439 38577 72990 28901 7375
internal_value=-2.61283e-06 -0.000833591 -0.00109571 0.000785547 0.00240893 -0.00165867 0.000677311 -0.00227204 -0.00429349 -0.00099056 -0.000199231 0.00883392 -0.00121255 -0.00918794 -0.0128461 0.000688811 0.00208509 0.00643878 0.0182737 0.0218704 0.00268218 0.00181736 -0.00546392 -0.00422309 -0.0147029 -0.000477487 -0.00509207 0.00130075 0.000482942 -0.0204812
internal_weight=462244 209936 202632 46670.5 37047 155962 32435 123527 44815.7 26758.3 25298.4 2551.68 22746.7 18057.4 8217.74 252309 36584.6 7303.59 1003.63 933.294 23017.9 36016.3 9623.49 9417.14 1459.95 21634.2 8986.22 18127.6 25327.6 2517.98
internal_count=2097554 962976 930715 211981 167228 718734 147508 571226 210280 122574 115394 11742 103652 87706 40172 1134578 165228 32261 4186 3825 103804 162818 44753 43704 7180 98159 41735 82051 114636 12794
is_linear=0
shrinkage=0.05


Tree=26
num_leaves=31
num_cat=0
split_feature=31 27 0 41 55 0 16 22 55 12 51 55 18 55 39 32 0 21 39 39 29 16 50 18 41 52 41 39 27 32
split_gain=98.4258 67.188 175.634 109.332 79.9326 78.4372 111.715 67.4106 61.4159 61.3022 58.7334 55.3833 51.3185 66.9023 67.4035 77.1042 63.5776 61.3982 51.6428 50.6065 76.9694 48.3406 48.2345 47.1941 46.4308 45.8122 49.8547 43.7687 42.0473 41.9522
threshold=-0.7865660786628722 0.0094708637334406393 1.0000000180025095e-35 1.4999812331503033 0.95436772704124462 1.0000000180025095e-35 0.13481912761926654 22.2658224105835 3.3532918691635136 0.25945208966732031 2.6642986536026005 3.4590641260147099 0.00032605843443889176 4.6333374977111825 0.092013888061046614 -0.87837970256805409 1.0000000180025095e-35 23.847705841064457 0.92187500000000011 0.68576389551162731 0.00052510362002067279 0.35312244296073919 1.0000000180025095e-35 0.00088068391778506349 1.4999227979109564 0.82608425617218029 1.4984083587688941 0.46701389551162725 -1.596041679382324 0.87837970256805431
decision_type=2 2 2 2 2 2 2 2 2 2 2 2 2 2 2 2 2 2 2 2 2 2 2 2 2 2 2 2 2 2
left_child=1 5 7 4 24 11 9 29 -8 -7 22 27 13 14 15 -2 -15 -14 -19 -16 -21 -10 -11 -13 -4 26 -24 -1 -25 -3
right_child=12 2 3 -5 -6 6 8 -9 21 10 -12 23 17 16 19 -17 -18 18 -20 20 -22 -23 25 28 -26 -27 -28 -29 -30 -31
leaf_value=0.0068239412624050491 0.014473754440564252 0.006894050045303305 -0.01136223186919641 0.00012647609348543111 -0.0037930174068058972 0.010593960430933606 0.0038445202033577882 -0.0043488810782088966 0.01214684045752544 0.0011500736149660834 0.026436396451370484 -0.0094538729623834614 0.0005672459283646669 -0.0014646706657934468 -0.00087998497268420423 0.0027434783306278894 0.0064171099107498703 -0.0015278066174016344 0.00253494309935308 0.004275992390661891 0.00037619594626145359 0.033389765533474051 -0.0087259898075453205 0.066884884145194487 -0.0039918726767085274 0.00094135629229973982 -0.0013555087234970445 -0.0035124322131496622 -0.023440315027254882 -0.0036438210170771641
leaf_weight=1348.0722120255232 1640.1880074292421 6479.1104421317577 7980.7945801317692 9581.0330933481455 15397.257371306419 1334.9766689091921 1672.5579901635647 2340.5498005151749 917.79232594370842 19464.484408214688 203.79579494893551 3849.2350565046072 132589.00013755262 3418.886195063591 46879.180305108428 9601.5497552752495 10167.53154335916 80170.933101966977 8667.5019652396441 16115.655083820224 58876.553378373384 378.15055865049362 4309.3240702599287 37.931086212396622 2918.1436724811792 5571.2471734583378 4906.6940799057484 4262.373589143157 19.51207771897316 1105.6423099189997
leaf_count=6271 7347 28809 39571 44093 74480 5952 7613 10879 4036 89036 877 18838 597035 15460 212167 43017 45284 363221 39076 71032 264207 1564 20111 181 14149 25647 22455 20136 92 4918
internal_value=-2.61266e-06 -0.00144592 -0.00281773 -0.00444624 -0.00611231 -0.000144411 0.00085428 0.0030689 0.0101751 8.12017e-05 -0.000326114 -0.00421164 0.000366241 0.00109153 0.000750398 0.00445494 0.00443374 -0.000114274 -0.00113143 0.000408681 0.00121425 0.0183454 -0.000485349 -0.00878253 -0.00938885 -0.00263806 -0.00480188 -0.00102882 0.0362036 0.00535793
internal_weight=462206 94078.7 45802.5 35877.2 26296.2 48276.1 38759 9925.3 2968.5 35790.5 34455.5 9517.12 368127 146700 133113 11241.7 13586.4 221427 88838.4 121871 74992.2 1295.94 34251.7 3906.68 10898.9 14787.3 9216.02 5610.45 57.4432 7584.75
internal_count=2097554 439708 216899 172293 128200 222809 177291 44606 13213 164078 158126 45518 1657846 658514 597770 50364 60744 999332 402297 547406 335239 5600 157249 19111 53720 68213 42566 26407 273 33727
is_linear=0
shrinkage=0.05


Tree=27
num_leaves=31
num_cat=0
